{"learner":{"attributes":{"best_iteration":"532","best_score":"39.1665966012682"},"feature_names":[],"feature_types":[],"gradient_booster":{"model":{"gbtree_model_param":{"num_parallel_tree":"1","num_trees":"537"},"iteration_indptr":[0,1,2,3,4,5,6,7,8,9,10,11,12,13,14,15,16,17,18,19,20,21,22,23,24,25,26,27,28,29,30,31,32,33,34,35,36,37,38,39,40,41,42,43,44,45,46,47,48,49,50,51,52,53,54,55,56,57,58,59,60,61,62,63,64,65,66,67,68,69,70,71,72,73,74,75,76,77,78,79,80,81,82,83,84,85,86,87,88,89,90,91,92,93,94,95,96,97,98,99,100,101,102,103,104,105,106,107,108,109,110,111,112,113,114,115,116,117,118,119,120,121,122,123,124,125,126,127,128,129,130,131,132,133,134,135,136,137,138,139,140,141,142,143,144,145,146,147,148,149,150,151,152,153,154,155,156,157,158,159,160,161,162,163,164,165,166,167,168,169,170,171,172,173,174,175,176,177,178,179,180,181,182,183,184,185,186,187,188,189,190,191,192,193,194,195,196,197,198,199,200,201,202,203,204,205,206,207,208,209,210,211,212,213,214,215,216,217,218,219,220,221,222,223,224,225,226,227,228,229,230,231,232,233,234,235,236,237,238,239,240,241,242,243,244,245,246,247,248,249,250,251,252,253,254,255,256,257,258,259,260,261,262,263,264,265,266,267,268,269,270,271,272,273,274,275,276,277,278,279,280,281,282,283,284,285,286,287,288,289,290,291,292,293,294,295,296,297,298,299,300,301,302,303,304,305,306,307,308,309,310,311,312,313,314,315,316,317,318,319,320,321,322,323,324,325,326,327,328,329,330,331,332,333,334,335,336,337,338,339,340,341,342,343,344,345,346,347,348,349,350,351,352,353,354,355,356,357,358,359,360,361,362,363,364,365,366,367,368,369,370,371,372,373,374,375,376,377,378,379,380,381,382,383,384,385,386,387,388,389,390,391,392,393,394,395,396,397,398,399,400,401,402,403,404,405,406,407,408,409,410,411,412,413,414,415,416,417,418,419,420,421,422,423,424,425,426,427,428,429,430,431,432,433,434,435,436,437,438,439,440,441,442,443,444,445,446,447,448,449,450,451,452,453,454,455,456,457,458,459,460,461,462,463,464,465,466,467,468,469,470,471,472,473,474,475,476,477,478,479,480,481,482,483,484,485,486,487,488,489,490,491,492,493,494,495,496,497,498,499,500,501,502,503,504,505,506,507,508,509,510,511,512,513,514,515,516,517,518,519,520,521,522,523,524,525,526,527,528,529,530,531,532,533,534,535,536,537],"tree_info":[0,0,0,0,0,0,0,0,0,0,0,0,0,0,0,0,0,0,0,0,0,0,0,0,0,0,0,0,0,0,0,0,0,0,0,0,0,0,0,0,0,0,0,0,0,0,0,0,0,0,0,0,0,0,0,0,0,0,0,0,0,0,0,0,0,0,0,0,0,0,0,0,0,0,0,0,0,0,0,0,0,0,0,0,0,0,0,0,0,0,0,0,0,0,0,0,0,0,0,0,0,0,0,0,0,0,0,0,0,0,0,0,0,0,0,0,0,0,0,0,0,0,0,0,0,0,0,0,0,0,0,0,0,0,0,0,0,0,0,0,0,0,0,0,0,0,0,0,0,0,0,0,0,0,0,0,0,0,0,0,0,0,0,0,0,0,0,0,0,0,0,0,0,0,0,0,0,0,0,0,0,0,0,0,0,0,0,0,0,0,0,0,0,0,0,0,0,0,0,0,0,0,0,0,0,0,0,0,0,0,0,0,0,0,0,0,0,0,0,0,0,0,0,0,0,0,0,0,0,0,0,0,0,0,0,0,0,0,0,0,0,0,0,0,0,0,0,0,0,0,0,0,0,0,0,0,0,0,0,0,0,0,0,0,0,0,0,0,0,0,0,0,0,0,0,0,0,0,0,0,0,0,0,0,0,0,0,0,0,0,0,0,0,0,0,0,0,0,0,0,0,0,0,0,0,0,0,0,0,0,0,0,0,0,0,0,0,0,0,0,0,0,0,0,0,0,0,0,0,0,0,0,0,0,0,0,0,0,0,0,0,0,0,0,0,0,0,0,0,0,0,0,0,0,0,0,0,0,0,0,0,0,0,0,0,0,0,0,0,0,0,0,0,0,0,0,0,0,0,0,0,0,0,0,0,0,0,0,0,0,0,0,0,0,0,0,0,0,0,0,0,0,0,0,0,0,0,0,0,0,0,0,0,0,0,0,0,0,0,0,0,0,0,0,0,0,0,0,0,0,0,0,0,0,0,0,0,0,0,0,0,0,0,0,0,0,0,0,0,0,0,0,0,0,0,0,0,0,0,0,0,0,0,0,0,0,0,0,0,0,0,0,0,0,0,0,0,0,0,0,0,0,0,0,0,0,0,0,0,0,0,0,0,0,0,0,0,0,0,0,0,0,0,0,0,0,0,0,0,0,0,0,0,0,0,0,0,0,0,0,0,0,0,0,0,0,0,0,0,0,0,0,0,0,0,0,0],"trees":[{"base_weights":[-2.5287985E-5,-3.8514545E0,2.2655588E1,1.9208008E1,9.264315E1,-1.1801176E1,2.3855791E1,1.0933851E0,5.5455044E1,2.2249935E1,-6.323671E1,3.9251984E1,1.9479183E1,3.9192477E-1,9.640425E-1,7.870031E-2,3.1039701E1,-1.1455753E0,-4.4420334E1,5.296807E-1,3.7214237E1,-1.5051643E1,2.5678324E1,3.690836E-1,2.343369E-1,-5.279482E-1,3.0046463E-2,1.8718837E-1,3.7687334E-1,6.063821E-2,-1.8265767E-1,2.1347997E-1,4.102541E-1],"categories":[],"categories_nodes":[],"categories_segments":[],"categories_sizes":[],"default_left":[0,0,0,0,0,0,0,0,0,0,0,0,0,0,0,0,0,0,0,0,0,0,0,0,0,0,0,0,0,0,0,0,0],"id":0,"left_children":[1,-1,3,5,7,9,11,-1,13,15,17,19,21,-1,-1,-1,23,-1,25,-1,27,29,31,-1,-1,-1,-1,-1,-1,-1,-1,-1,-1],"loss_changes":[1.1465577E7,0E0,2.9765856E5,1.7092425E5,2.9947E4,2.7287975E5,6.863994E4,0E0,9.540465E3,1.1636941E4,5.478297E4,4.3734688E3,1.7249188E5,0E0,0E0,0E0,1.7240469E3,0E0,1.8825156E4,0E0,1.0532812E3,8.45849E3,4.444847E4,0E0,0E0,0E0,0E0,0E0,0E0,0E0,0E0,0E0,0E0],"parents":[2147483647,0,0,2,2,3,3,4,4,5,5,6,6,8,8,9,9,10,10,11,11,12,12,16,16,18,18,20,20,21,21,22,22],"right_children":[2,-1,4,6,8,10,12,-1,14,16,18,20,22,-1,-1,-1,24,-1,26,-1,28,30,32,-1,-1,-1,-1,-1,-1,-1,-1,-1,-1],"split_conditions":[1.123E2,-3.8514545E0,1.224E2,1.148E2,1.234E2,1.133E2,1.16E2,1.0933851E0,4.88E1,1.126E2,1.14E2,1.152E2,1.167E2,3.9192477E-1,9.640425E-1,7.870031E-2,4.88E1,-1.1455753E0,4.88E1,5.296807E-1,1.153E2,1.1627E2,1.188E2,3.690836E-1,2.343369E-1,-5.279482E-1,3.0046463E-2,1.8718837E-1,3.7687334E-1,6.063821E-2,-1.8265767E-1,2.1347997E-1,4.102541E-1],"split_indices":[1,0,1,1,1,1,1,0,0,1,1,1,1,0,0,0,0,0,0,0,1,1,1,0,0,0,0,0,0,0,0,0,0],"split_type":[0,0,0,0,0,0,0,0,0,0,0,0,0,0,0,0,0,0,0,0,0,0,0,0,0,0,0,0,0,0,0,0,0],"sum_hessian":[1.312E3,7.2E1,1.24E3,1.183E3,5.7E1,1.54E2,1.029E3,3.8E1,1.9E1,9.3E1,6.1E1,2.26E2,8.03E2,1.5E1,4E0,3.6E1,5.7E1,1.5E1,4.6E1,2.6E1,2E2,1.22E2,6.81E2,3E1,2.7E1,3.9E1,7E0,6E0,1.94E2,1.6E1,1.06E2,5.33E2,1.48E2],"tree_param":{"num_deleted":"0","num_feature":"2","num_nodes":"33","size_leaf_vector":"1"}},{"base_weights":[-6.2071776E-4,-3.8134677E0,2.2431505E1,1.9016453E1,9.175896E1,-1.1689354E1,2.3618767E1,1.0827315E0,5.4968304E1,2.203471E1,-6.2630848E1,3.8864265E1,1.9285002E1,3.8825065E-1,9.5633006E-1,7.793483E-2,3.0739721E1,-1.1348355E0,-4.3986717E1,5.245803E-1,3.6844883E1,-1.4902098E1,2.5422432E1,3.655119E-1,2.3207746E-1,-5.228007E-1,2.9783705E-2,1.8558383E-1,3.7312374E-1,6.0067784E-2,-1.8084796E-1,2.1134895E-1,4.0617883E-1],"categories":[],"categories_nodes":[],"categories_segments":[],"categories_sizes":[],"default_left":[0,0,0,0,0,0,0,0,0,0,0,0,0,0,0,0,0,0,0,0,0,0,0,0,0,0,0,0,0,0,0,0,0],"id":1,"left_children":[1,-1,3,5,7,9,11,-1,13,15,17,19,21,-1,-1,-1,23,-1,25,-1,27,29,31,-1,-1,-1,-1,-1,-1,-1,-1,-1,-1],"loss_changes":[1.1240488E7,0E0,2.920705E5,1.6759634E5,2.9287344E4,2.6766297E5,6.7303E4,0E0,9.416242E3,1.1413613E4,5.379072E4,4.2985938E3,1.6907488E5,0E0,0E0,0E0,1.6904961E3,0E0,1.8462102E4,0E0,1.0258438E3,8.293871E3,4.3574594E4,0E0,0E0,0E0,0E0,0E0,0E0,0E0,0E0,0E0,0E0],"parents":[2147483647,0,0,2,2,3,3,4,4,5,5,6,6,8,8,9,9,10,10,11,11,12,12,16,16,18,18,20,20,21,21,22,22],"right_children":[2,-1,4,6,8,10,12,-1,14,16,18,20,22,-1,-1,-1,24,-1,26,-1,28,30,32,-1,-1,-1,-1,-1,-1,-1,-1,-1,-1],"split_conditions":[1.123E2,-3.8134677E0,1.224E2,1.148E2,1.234E2,1.133E2,1.16E2,1.0827315E0,4.88E1,1.126E2,1.14E2,1.152E2,1.167E2,3.8825065E-1,9.5633006E-1,7.793483E-2,4.88E1,-1.1348355E0,4.88E1,5.245803E-1,1.153E2,1.1627E2,1.188E2,3.655119E-1,2.3207746E-1,-5.228007E-1,2.9783705E-2,1.8558383E-1,3.7312374E-1,6.0067784E-2,-1.8084796E-1,2.1134895E-1,4.0617883E-1],"split_indices":[1,0,1,1,1,1,1,0,0,1,1,1,1,0,0,0,0,0,0,0,1,1,1,0,0,0,0,0,0,0,0,0,0],"split_type":[0,0,0,0,0,0,0,0,0,0,0,0,0,0,0,0,0,0,0,0,0,0,0,0,0,0,0,0,0,0,0,0,0],"sum_hessian":[1.312E3,7.2E1,1.24E3,1.183E3,5.7E1,1.54E2,1.029E3,3.8E1,1.9E1,9.3E1,6.1E1,2.26E2,8.03E2,1.5E1,4E0,3.6E1,5.7E1,1.5E1,4.6E1,2.6E1,2E2,1.22E2,6.81E2,3E1,2.7E1,3.9E1,7E0,6E0,1.94E2,1.6E1,1.06E2,5.33E2,1.48E2],"tree_param":{"num_deleted":"0","num_feature":"2","num_nodes":"33","size_leaf_vector":"1"}},{"base_weights":[-1.1961589E-3,-3.7758553E0,2.2209648E1,1.8826813E1,9.088323E1,-1.1578602E1,2.3384106E1,1.0721822E0,5.4485847E1,2.1821543E1,-6.203078E1,3.8480408E1,1.9092756E1,3.8461086E-1,9.4867915E-1,7.717648E-2,3.0442623E1,-1.1241964E0,-4.355732E1,5.195286E-1,3.647923E1,-1.4754058E1,2.51691E1,3.619744E-1,2.2983977E-1,-5.1770306E-1,2.9523086E-2,1.8399292E-1,3.694118E-1,5.9502523E-2,-1.7905639E-1,2.0923927E-1,4.021442E-1],"categories":[],"categories_nodes":[],"categories_segments":[],"categories_sizes":[],"default_left":[0,0,0,0,0,0,0,0,0,0,0,0,0,0,0,0,0,0,0,0,0,0,0,0,0,0,0,0,0,0,0,0,0],"id":2,"left_children":[1,-1,3,5,7,9,11,-1,13,15,17,19,21,-1,-1,-1,23,-1,25,-1,27,29,31,-1,-1,-1,-1,-1,-1,-1,-1,-1,-1],"loss_changes":[1.1019816E7,0E0,2.865875E5,1.6433334E5,2.8642031E4,2.625457E5,6.599231E4,0E0,9.293539E3,1.119459E4,5.2816438E4,4.224875E3,1.657259E5,0E0,0E0,0E0,1.6575781E3,0E0,1.8106047E4,0E0,9.9909375E2,8.132457E3,4.2717844E4,0E0,0E0,0E0,0E0,0E0,0E0,0E0,0E0,0E0,0E0],"parents":[2147483647,0,0,2,2,3,3,4,4,5,5,6,6,8,8,9,9,10,10,11,11,12,12,16,16,18,18,20,20,21,21,22,22],"right_children":[2,-1,4,6,8,10,12,-1,14,16,18,20,22,-1,-1,-1,24,-1,26,-1,28,30,32,-1,-1,-1,-1,-1,-1,-1,-1,-1,-1],"split_conditions":[1.123E2,-3.7758553E0,1.224E2,1.148E2,1.234E2,1.133E2,1.16E2,1.0721822E0,4.88E1,1.126E2,1.14E2,1.152E2,1.167E2,3.8461086E-1,9.4867915E-1,7.717648E-2,4.88E1,-1.1241964E0,4.88E1,5.195286E-1,1.153E2,1.1627E2,1.188E2,3.619744E-1,2.2983977E-1,-5.1770306E-1,2.9523086E-2,1.8399292E-1,3.694118E-1,5.9502523E-2,-1.7905639E-1,2.0923927E-1,4.021442E-1],"split_indices":[1,0,1,1,1,1,1,0,0,1,1,1,1,0,0,0,0,0,0,0,1,1,1,0,0,0,0,0,0,0,0,0,0],"split_type":[0,0,0,0,0,0,0,0,0,0,0,0,0,0,0,0,0,0,0,0,0,0,0,0,0,0,0,0,0,0,0,0,0],"sum_hessian":[1.312E3,7.2E1,1.24E3,1.183E3,5.7E1,1.54E2,1.029E3,3.8E1,1.9E1,9.3E1,6.1E1,2.26E2,8.03E2,1.5E1,4E0,3.6E1,5.7E1,1.5E1,4.6E1,2.6E1,2E2,1.22E2,6.81E2,3E1,2.7E1,3.9E1,7E0,6E0,1.94E2,1.6E1,1.06E2,5.33E2,1.48E2],"tree_param":{"num_deleted":"0","num_feature":"2","num_nodes":"33","size_leaf_vector":"1"}},{"base_weights":[-1.7459866E-3,-3.7386138E0,2.1989998E1,1.8639078E1,9.001587E1,-1.14689045E1,2.3151794E1,1.061735E0,5.400768E1,2.1610443E1,-6.143648E1,3.8100353E1,1.8902447E1,3.810054E-1,9.410898E-1,7.642584E-2,3.0148378E1,-1.113657E0,-4.3132137E1,5.145257E-1,3.6117214E1,-1.4607472E1,2.491831E1,3.584712E-1,2.2762328E-1,-5.126555E-1,2.9264603E-2,1.8241559E-1,3.6573687E-1,5.894244E-2,-1.7728235E-1,2.0715089E-1,3.981496E-1],"categories":[],"categories_nodes":[],"categories_segments":[],"categories_sizes":[],"default_left":[0,0,0,0,0,0,0,0,0,0,0,0,0,0,0,0,0,0,0,0,0,0,0,0,0,0,0,0,0,0,0,0,0],"id":3,"left_children":[1,-1,3,5,7,9,11,-1,13,15,17,19,21,-1,-1,-1,23,-1,25,-1,27,29,31,-1,-1,-1,-1,-1,-1,-1,-1,-1,-1],"loss_changes":[1.0803478E7,0E0,2.8120725E5,1.6113422E5,2.8010688E4,2.5752636E5,6.4707E4,0E0,9.172336E3,1.0979715E4,5.1859703E4,4.1524375E3,1.6244322E5,0E0,0E0,0E0,1.6253242E3,0E0,1.7756867E4,0E0,9.73E2,7.97416E3,4.1877906E4,0E0,0E0,0E0,0E0,0E0,0E0,0E0,0E0,0E0,0E0],"parents":[2147483647,0,0,2,2,3,3,4,4,5,5,6,6,8,8,9,9,10,10,11,11,12,12,16,16,18,18,20,20,21,21,22,22],"right_children":[2,-1,4,6,8,10,12,-1,14,16,18,20,22,-1,-1,-1,24,-1,26,-1,28,30,32,-1,-1,-1,-1,-1,-1,-1,-1,-1,-1],"split_conditions":[1.123E2,-3.7386138E0,1.224E2,1.148E2,1.234E2,1.133E2,1.16E2,1.061735E0,4.88E1,1.126E2,1.14E2,1.152E2,1.167E2,3.810054E-1,9.410898E-1,7.642584E-2,4.88E1,-1.113657E0,4.88E1,5.145257E-1,1.153E2,1.1627E2,1.188E2,3.584712E-1,2.2762328E-1,-5.126555E-1,2.9264603E-2,1.8241559E-1,3.6573687E-1,5.894244E-2,-1.7728235E-1,2.0715089E-1,3.981496E-1],"split_indices":[1,0,1,1,1,1,1,0,0,1,1,1,1,0,0,0,0,0,0,0,1,1,1,0,0,0,0,0,0,0,0,0,0],"split_type":[0,0,0,0,0,0,0,0,0,0,0,0,0,0,0,0,0,0,0,0,0,0,0,0,0,0,0,0,0,0,0,0,0],"sum_hessian":[1.312E3,7.2E1,1.24E3,1.183E3,5.7E1,1.54E2,1.029E3,3.8E1,1.9E1,9.3E1,6.1E1,2.26E2,8.03E2,1.5E1,4E0,3.6E1,5.7E1,1.5E1,4.6E1,2.6E1,2E2,1.22E2,6.81E2,3E1,2.7E1,3.9E1,7E0,6E0,1.94E2,1.6E1,1.06E2,5.33E2,1.48E2],"tree_param":{"num_deleted":"0","num_feature":"2","num_nodes":"33","size_leaf_vector":"1"}},{"base_weights":[-2.2871217E-3,-3.70174E0,2.1772522E1,1.8453213E1,8.915683E1,-1.1360241E1,2.2921787E1,1.0513902E0,5.3533722E1,2.14014E1,-6.0847885E1,3.772404E1,1.8714033E1,3.774337E-1,9.33561E-1,7.5682335E-2,2.9857018E1,-1.1032166E0,-4.2711113E1,5.09571E-1,3.5758785E1,-1.446234E1,2.4670015E1,3.5500225E-1,2.2542858E-1,-5.0765735E-1,2.9008789E-2,1.8085188E-1,3.6209843E-1,5.838752E-2,-1.7552586E-1,2.0508324E-1,3.94195E-1],"categories":[],"categories_nodes":[],"categories_segments":[],"categories_sizes":[],"default_left":[0,0,0,0,0,0,0,0,0,0,0,0,0,0,0,0,0,0,0,0,0,0,0,0,0,0,0,0,0,0,0,0,0],"id":4,"left_children":[1,-1,3,5,7,9,11,-1,13,15,17,19,21,-1,-1,-1,23,-1,25,-1,27,29,31,-1,-1,-1,-1,-1,-1,-1,-1,-1,-1],"loss_changes":[1.0591389E7,0E0,2.7592856E5,1.5799722E5,2.7392938E4,2.5260322E5,6.3446812E4,0E0,9.052609E3,1.076902E4,5.0920297E4,4.0812812E3,1.592255E5,0E0,0E0,0E0,1.5936953E3,0E0,1.7414469E4,0E0,9.4746875E2,7.8189336E3,4.1054625E4,0E0,0E0,0E0,0E0,0E0,0E0,0E0,0E0,0E0,0E0],"parents":[2147483647,0,0,2,2,3,3,4,4,5,5,6,6,8,8,9,9,10,10,11,11,12,12,16,16,18,18,20,20,21,21,22,22],"right_children":[2,-1,4,6,8,10,12,-1,14,16,18,20,22,-1,-1,-1,24,-1,26,-1,28,30,32,-1,-1,-1,-1,-1,-1,-1,-1,-1,-1],"split_conditions":[1.123E2,-3.70174E0,1.224E2,1.148E2,1.234E2,1.133E2,1.16E2,1.0513902E0,4.88E1,1.126E2,1.14E2,1.152E2,1.167E2,3.774337E-1,9.33561E-1,7.5682335E-2,4.88E1,-1.1032166E0,4.88E1,5.09571E-1,1.153E2,1.1627E2,1.188E2,3.5500225E-1,2.2542858E-1,-5.0765735E-1,2.9008789E-2,1.8085188E-1,3.6209843E-1,5.838752E-2,-1.7552586E-1,2.0508324E-1,3.94195E-1],"split_indices":[1,0,1,1,1,1,1,0,0,1,1,1,1,0,0,0,0,0,0,0,1,1,1,0,0,0,0,0,0,0,0,0,0],"split_type":[0,0,0,0,0,0,0,0,0,0,0,0,0,0,0,0,0,0,0,0,0,0,0,0,0,0,0,0,0,0,0,0,0],"sum_hessian":[1.312E3,7.2E1,1.24E3,1.183E3,5.7E1,1.54E2,1.029E3,3.8E1,1.9E1,9.3E1,6.1E1,2.26E2,8.03E2,1.5E1,4E0,3.6E1,5.7E1,1.5E1,4.6E1,2.6E1,2E2,1.22E2,6.81E2,3E1,2.7E1,3.9E1,7E0,6E0,1.94E2,1.6E1,1.06E2,5.33E2,1.48E2],"tree_param":{"num_deleted":"0","num_feature":"2","num_nodes":"33","size_leaf_vector":"1"}},{"base_weights":[-2.819006E-3,-3.6652298E0,2.1557194E1,1.8269197E1,8.830599E1,-1.1252609E1,2.2694061E1,1.0411458E0,5.3063934E1,2.119438E1,-6.026494E1,3.7351418E1,1.8527502E1,3.7389517E-1,9.2609274E-1,7.494596E-2,2.9568478E1,-1.0928739E0,-4.229421E1,5.0466394E-1,3.5403877E1,-1.4318663E1,2.4424204E1,3.5156694E-1,2.2325504E-1,-5.0270796E-1,2.8755112E-2,1.7930175E-1,3.5849577E-1,5.7837777E-2,-1.7378688E-1,2.0303631E-1,3.902798E-1],"categories":[],"categories_nodes":[],"categories_segments":[],"categories_sizes":[],"default_left":[0,0,0,0,0,0,0,0,0,0,0,0,0,0,0,0,0,0,0,0,0,0,0,0,0,0,0,0,0,0,0,0,0],"id":5,"left_children":[1,-1,3,5,7,9,11,-1,13,15,17,19,21,-1,-1,-1,23,-1,25,-1,27,29,31,-1,-1,-1,-1,-1,-1,-1,-1,-1,-1],"loss_changes":[1.0383462E7,0E0,2.707488E5,1.5492131E5,2.6788656E4,2.4777419E5,6.2210812E4,0E0,8.934383E3,1.0562387E4,4.9997875E4,4.0113125E3,1.5607169E5,0E0,0E0,0E0,1.5626797E3,0E0,1.7078664E4,0E0,9.22625E2,7.6667344E3,4.0247594E4,0E0,0E0,0E0,0E0,0E0,0E0,0E0,0E0,0E0,0E0],"parents":[2147483647,0,0,2,2,3,3,4,4,5,5,6,6,8,8,9,9,10,10,11,11,12,12,16,16,18,18,20,20,21,21,22,22],"right_children":[2,-1,4,6,8,10,12,-1,14,16,18,20,22,-1,-1,-1,24,-1,26,-1,28,30,32,-1,-1,-1,-1,-1,-1,-1,-1,-1,-1],"split_conditions":[1.123E2,-3.6652298E0,1.224E2,1.148E2,1.234E2,1.133E2,1.16E2,1.0411458E0,4.88E1,1.126E2,1.14E2,1.152E2,1.167E2,3.7389517E-1,9.2609274E-1,7.494596E-2,4.88E1,-1.0928739E0,4.88E1,5.0466394E-1,1.153E2,1.1627E2,1.188E2,3.5156694E-1,2.2325504E-1,-5.0270796E-1,2.8755112E-2,1.7930175E-1,3.5849577E-1,5.7837777E-2,-1.7378688E-1,2.0303631E-1,3.902798E-1],"split_indices":[1,0,1,1,1,1,1,0,0,1,1,1,1,0,0,0,0,0,0,0,1,1,1,0,0,0,0,0,0,0,0,0,0],"split_type":[0,0,0,0,0,0,0,0,0,0,0,0,0,0,0,0,0,0,0,0,0,0,0,0,0,0,0,0,0,0,0,0,0],"sum_hessian":[1.312E3,7.2E1,1.24E3,1.183E3,5.7E1,1.54E2,1.029E3,3.8E1,1.9E1,9.3E1,6.1E1,2.26E2,8.03E2,1.5E1,4E0,3.6E1,5.7E1,1.5E1,4.6E1,2.6E1,2E2,1.22E2,6.81E2,3E1,2.7E1,3.9E1,7E0,6E0,1.94E2,1.6E1,1.06E2,5.33E2,1.48E2],"tree_param":{"num_deleted":"0","num_feature":"2","num_nodes":"33","size_leaf_vector":"1"}},{"base_weights":[-3.3550742E-3,-3.6290798E0,2.1343979E1,1.8086998E1,8.74633E1,-1.1146006E1,2.2468578E1,1.0310014E0,5.259829E1,2.0989346E1,-5.968757E1,3.6982475E1,1.8342804E1,3.7038985E-1,9.1868407E-1,7.42167E-2,2.92827E1,-1.0826281E0,-4.1881367E1,4.9980444E-1,3.5052486E1,-1.4176439E1,2.4180815E1,3.4816474E-1,2.2110212E-1,-4.9780676E-1,2.850357E-2,1.7776471E-1,3.5492897E-1,5.72932E-2,-1.7206547E-1,2.0100945E-1,3.8640338E-1],"categories":[],"categories_nodes":[],"categories_segments":[],"categories_sizes":[],"default_left":[0,0,0,0,0,0,0,0,0,0,0,0,0,0,0,0,0,0,0,0,0,0,0,0,0,0,0,0,0,0,0,0,0],"id":6,"left_children":[1,-1,3,5,7,9,11,-1,13,15,17,19,21,-1,-1,-1,23,-1,25,-1,27,29,31,-1,-1,-1,-1,-1,-1,-1,-1,-1,-1],"loss_changes":[1.0179618E7,0E0,2.6566656E5,1.5190516E5,2.6197469E4,2.4303731E5,6.0999125E4,0E0,8.817602E3,1.0359695E4,4.9092125E4,3.9425938E3,1.529804E5,0E0,0E0,0E0,1.5322734E3,0E0,1.6749344E4,0E0,8.983594E2,7.5175215E3,3.945647E4,0E0,0E0,0E0,0E0,0E0,0E0,0E0,0E0,0E0,0E0],"parents":[2147483647,0,0,2,2,3,3,4,4,5,5,6,6,8,8,9,9,10,10,11,11,12,12,16,16,18,18,20,20,21,21,22,22],"right_children":[2,-1,4,6,8,10,12,-1,14,16,18,20,22,-1,-1,-1,24,-1,26,-1,28,30,32,-1,-1,-1,-1,-1,-1,-1,-1,-1,-1],"split_conditions":[1.123E2,-3.6290798E0,1.224E2,1.148E2,1.234E2,1.133E2,1.16E2,1.0310014E0,4.88E1,1.126E2,1.14E2,1.152E2,1.167E2,3.7038985E-1,9.1868407E-1,7.42167E-2,4.88E1,-1.0826281E0,4.88E1,4.9980444E-1,1.153E2,1.1627E2,1.188E2,3.4816474E-1,2.2110212E-1,-4.9780676E-1,2.850357E-2,1.7776471E-1,3.5492897E-1,5.72932E-2,-1.7206547E-1,2.0100945E-1,3.8640338E-1],"split_indices":[1,0,1,1,1,1,1,0,0,1,1,1,1,0,0,0,0,0,0,0,1,1,1,0,0,0,0,0,0,0,0,0,0],"split_type":[0,0,0,0,0,0,0,0,0,0,0,0,0,0,0,0,0,0,0,0,0,0,0,0,0,0,0,0,0,0,0,0,0],"sum_hessian":[1.312E3,7.2E1,1.24E3,1.183E3,5.7E1,1.54E2,1.029E3,3.8E1,1.9E1,9.3E1,6.1E1,2.26E2,8.03E2,1.5E1,4E0,3.6E1,5.7E1,1.5E1,4.6E1,2.6E1,2E2,1.22E2,6.81E2,3E1,2.7E1,3.9E1,7E0,6E0,1.94E2,1.6E1,1.06E2,5.33E2,1.48E2],"tree_param":{"num_deleted":"0","num_feature":"2","num_nodes":"33","size_leaf_vector":"1"}},{"base_weights":[-3.855767E-3,-3.593286E0,2.1132896E1,1.7906641E1,8.662868E1,-1.1040407E1,2.2245365E1,1.0209558E0,5.213678E1,2.0786295E1,-5.9115723E1,3.6617207E1,1.8159973E1,3.6691773E-1,9.1133446E-1,7.3494576E-2,2.8999685E1,-1.0724783E0,-4.147254E1,4.949914E-1,3.4704624E1,-1.4035617E1,2.3939882E1,3.447956E-1,2.1896978E-1,-4.9295318E-1,2.8254164E-2,1.7624128E-1,3.5139796E-1,5.6753792E-2,-1.7036097E-1,1.9900335E-1,3.8256517E-1],"categories":[],"categories_nodes":[],"categories_segments":[],"categories_sizes":[],"default_left":[0,0,0,0,0,0,0,0,0,0,0,0,0,0,0,0,0,0,0,0,0,0,0,0,0,0,0,0,0,0,0,0,0],"id":7,"left_children":[1,-1,3,5,7,9,11,-1,13,15,17,19,21,-1,-1,-1,23,-1,25,-1,27,29,31,-1,-1,-1,-1,-1,-1,-1,-1,-1,-1],"loss_changes":[9.979774E6,0E0,2.6067969E5,1.4894806E5,2.5619062E4,2.38391E5,5.9811062E4,0E0,8.702227E3,1.0160898E4,4.820278E4,3.8749688E3,1.499504E5,0E0,0E0,0E0,1.5024727E3,0E0,1.6426336E4,0E0,8.747031E2,7.371207E3,3.8680594E4,0E0,0E0,0E0,0E0,0E0,0E0,0E0,0E0,0E0,0E0],"parents":[2147483647,0,0,2,2,3,3,4,4,5,5,6,6,8,8,9,9,10,10,11,11,12,12,16,16,18,18,20,20,21,21,22,22],"right_children":[2,-1,4,6,8,10,12,-1,14,16,18,20,22,-1,-1,-1,24,-1,26,-1,28,30,32,-1,-1,-1,-1,-1,-1,-1,-1,-1,-1],"split_conditions":[1.123E2,-3.593286E0,1.224E2,1.148E2,1.234E2,1.133E2,1.16E2,1.0209558E0,4.88E1,1.126E2,1.14E2,1.152E2,1.167E2,3.6691773E-1,9.1133446E-1,7.3494576E-2,4.88E1,-1.0724783E0,4.88E1,4.949914E-1,1.153E2,1.1627E2,1.188E2,3.447956E-1,2.1896978E-1,-4.9295318E-1,2.8254164E-2,1.7624128E-1,3.5139796E-1,5.6753792E-2,-1.7036097E-1,1.9900335E-1,3.8256517E-1],"split_indices":[1,0,1,1,1,1,1,0,0,1,1,1,1,0,0,0,0,0,0,0,1,1,1,0,0,0,0,0,0,0,0,0,0],"split_type":[0,0,0,0,0,0,0,0,0,0,0,0,0,0,0,0,0,0,0,0,0,0,0,0,0,0,0,0,0,0,0,0,0],"sum_hessian":[1.312E3,7.2E1,1.24E3,1.183E3,5.7E1,1.54E2,1.029E3,3.8E1,1.9E1,9.3E1,6.1E1,2.26E2,8.03E2,1.5E1,4E0,3.6E1,5.7E1,1.5E1,4.6E1,2.6E1,2E2,1.22E2,6.81E2,3E1,2.7E1,3.9E1,7E0,6E0,1.94E2,1.6E1,1.06E2,5.33E2,1.48E2],"tree_param":{"num_deleted":"0","num_feature":"2","num_nodes":"33","size_leaf_vector":"1"}},{"base_weights":[-4.340748E-3,-3.5578454E0,2.092391E1,1.7728086E1,8.580204E1,-1.0935806E1,2.2024374E1,1.0110081E0,5.167931E1,2.0585209E1,-5.854935E1,3.6255554E1,1.7978973E1,3.6347762E-1,9.040439E-1,7.277957E-2,2.8719402E1,-1.0624242E0,-4.106768E1,4.9022478E-1,3.4360218E1,-1.3896195E1,2.3701359E1,3.4145892E-1,2.1685806E-1,-4.8814663E-1,2.8006896E-2,1.7473039E-1,3.4790218E-1,5.621955E-2,-1.686734E-1,1.9701733E-1,3.7876517E-1],"categories":[],"categories_nodes":[],"categories_segments":[],"categories_sizes":[],"default_left":[0,0,0,0,0,0,0,0,0,0,0,0,0,0,0,0,0,0,0,0,0,0,0,0,0,0,0,0,0,0,0,0,0],"id":8,"left_children":[1,-1,3,5,7,9,11,-1,13,15,17,19,21,-1,-1,-1,23,-1,25,-1,27,29,31,-1,-1,-1,-1,-1,-1,-1,-1,-1,-1],"loss_changes":[9.783856E6,0E0,2.5578669E5,1.4604847E5,2.5053281E4,2.3383347E5,5.8646125E4,0E0,8.5883125E3,9.965895E3,4.7329656E4,3.8084062E3,1.4698055E5,0E0,0E0,0E0,1.47325E3,0E0,1.6109555E4,0E0,8.516875E2,7.22775E3,3.792E4,0E0,0E0,0E0,0E0,0E0,0E0,0E0,0E0,0E0,0E0],"parents":[2147483647,0,0,2,2,3,3,4,4,5,5,6,6,8,8,9,9,10,10,11,11,12,12,16,16,18,18,20,20,21,21,22,22],"right_children":[2,-1,4,6,8,10,12,-1,14,16,18,20,22,-1,-1,-1,24,-1,26,-1,28,30,32,-1,-1,-1,-1,-1,-1,-1,-1,-1,-1],"split_conditions":[1.123E2,-3.5578454E0,1.224E2,1.148E2,1.234E2,1.133E2,1.16E2,1.0110081E0,4.88E1,1.126E2,1.14E2,1.152E2,1.167E2,3.6347762E-1,9.040439E-1,7.277957E-2,4.88E1,-1.0624242E0,4.88E1,4.9022478E-1,1.153E2,1.1627E2,1.188E2,3.4145892E-1,2.1685806E-1,-4.8814663E-1,2.8006896E-2,1.7473039E-1,3.4790218E-1,5.621955E-2,-1.686734E-1,1.9701733E-1,3.7876517E-1],"split_indices":[1,0,1,1,1,1,1,0,0,1,1,1,1,0,0,0,0,0,0,0,1,1,1,0,0,0,0,0,0,0,0,0,0],"split_type":[0,0,0,0,0,0,0,0,0,0,0,0,0,0,0,0,0,0,0,0,0,0,0,0,0,0,0,0,0,0,0,0,0],"sum_hessian":[1.312E3,7.2E1,1.24E3,1.183E3,5.7E1,1.54E2,1.029E3,3.8E1,1.9E1,9.3E1,6.1E1,2.26E2,8.03E2,1.5E1,4E0,3.6E1,5.7E1,1.5E1,4.6E1,2.6E1,2E2,1.22E2,6.81E2,3E1,2.7E1,3.9E1,7E0,6E0,1.94E2,1.6E1,1.06E2,5.33E2,1.48E2],"tree_param":{"num_deleted":"0","num_feature":"2","num_nodes":"33","size_leaf_vector":"1"}},{"base_weights":[-4.8243804E-3,-3.5227544E0,2.071698E1,1.75513E1,8.498332E1,-1.0832184E1,2.1805561E1,1.0011576E0,5.12259E1,2.038609E1,-5.7988403E1,3.589746E1,1.7799757E1,3.6007014E-1,8.968115E-1,7.20717E-2,2.8441849E1,-1.0524638E0,-4.0666786E1,4.85504E-1,3.401922E1,-1.3758123E1,2.3465181E1,3.3815473E-1,2.1476693E-1,-4.8338705E-1,2.7761765E-2,1.7323259E-1,3.4444103E-1,5.5690486E-2,-1.6700214E-1,1.9505079E-1,3.7500277E-1],"categories":[],"categories_nodes":[],"categories_segments":[],"categories_sizes":[],"default_left":[0,0,0,0,0,0,0,0,0,0,0,0,0,0,0,0,0,0,0,0,0,0,0,0,0,0,0,0,0,0,0,0,0],"id":9,"left_children":[1,-1,3,5,7,9,11,-1,13,15,17,19,21,-1,-1,-1,23,-1,25,-1,27,29,31,-1,-1,-1,-1,-1,-1,-1,-1,-1,-1],"loss_changes":[9.591782E6,0E0,2.5098581E5,1.4320506E5,2.4499719E4,2.293632E5,5.750397E4,0E0,8.475773E3,9.774641E3,4.6472203E4,3.7430625E3,1.4406902E5,0E0,0E0,0E0,1.4445859E3,0E0,1.5798883E4,0E0,8.291875E2,7.0870703E3,3.7174406E4,0E0,0E0,0E0,0E0,0E0,0E0,0E0,0E0,0E0,0E0],"parents":[2147483647,0,0,2,2,3,3,4,4,5,5,6,6,8,8,9,9,10,10,11,11,12,12,16,16,18,18,20,20,21,21,22,22],"right_children":[2,-1,4,6,8,10,12,-1,14,16,18,20,22,-1,-1,-1,24,-1,26,-1,28,30,32,-1,-1,-1,-1,-1,-1,-1,-1,-1,-1],"split_conditions":[1.123E2,-3.5227544E0,1.224E2,1.148E2,1.234E2,1.133E2,1.16E2,1.0011576E0,4.88E1,1.126E2,1.14E2,1.152E2,1.167E2,3.6007014E-1,8.968115E-1,7.20717E-2,4.88E1,-1.0524638E0,4.88E1,4.85504E-1,1.153E2,1.1627E2,1.188E2,3.3815473E-1,2.1476693E-1,-4.8338705E-1,2.7761765E-2,1.7323259E-1,3.4444103E-1,5.5690486E-2,-1.6700214E-1,1.9505079E-1,3.7500277E-1],"split_indices":[1,0,1,1,1,1,1,0,0,1,1,1,1,0,0,0,0,0,0,0,1,1,1,0,0,0,0,0,0,0,0,0,0],"split_type":[0,0,0,0,0,0,0,0,0,0,0,0,0,0,0,0,0,0,0,0,0,0,0,0,0,0,0,0,0,0,0,0,0],"sum_hessian":[1.312E3,7.2E1,1.24E3,1.183E3,5.7E1,1.54E2,1.029E3,3.8E1,1.9E1,9.3E1,6.1E1,2.26E2,8.03E2,1.5E1,4E0,3.6E1,5.7E1,1.5E1,4.6E1,2.6E1,2E2,1.22E2,6.81E2,3E1,2.7E1,3.9E1,7E0,6E0,1.94E2,1.6E1,1.06E2,5.33E2,1.48E2],"tree_param":{"num_deleted":"0","num_feature":"2","num_nodes":"33","size_leaf_vector":"1"}},{"base_weights":[-5.300901E-3,-3.4880092E0,2.0512093E1,1.7376272E1,8.4172424E1,-1.0729556E1,2.158892E1,9.914026E-1,5.077651E1,2.0188875E1,-5.743283E1,3.5542927E1,1.7622318E1,3.566947E-1,8.8963723E-1,7.1370356E-2,2.8166965E1,-1.0425967E0,-4.0269802E1,4.808291E-1,3.368162E1,-1.3621452E1,2.3231352E1,3.348825E-1,2.126958E-1,-4.7867393E-1,2.7518768E-2,1.7174788E-1,3.4101447E-1,5.5166587E-2,-1.6534781E-1,1.9310376E-1,3.7127793E-1],"categories":[],"categories_nodes":[],"categories_segments":[],"categories_sizes":[],"default_left":[0,0,0,0,0,0,0,0,0,0,0,0,0,0,0,0,0,0,0,0,0,0,0,0,0,0,0,0,0,0,0,0,0],"id":10,"left_children":[1,-1,3,5,7,9,11,-1,13,15,17,19,21,-1,-1,-1,23,-1,25,-1,27,29,31,-1,-1,-1,-1,-1,-1,-1,-1,-1,-1],"loss_changes":[9.403479E6,0E0,2.4627497E5,1.4041719E5,2.3958188E4,2.2497828E5,5.6384188E4,0E0,8.364621E3,9.587074E3,4.563028E4,3.6788438E3,1.4121534E5,0E0,0E0,0E0,1.4164922E3,0E0,1.5494203E4,0E0,8.072344E2,6.949162E3,3.6443594E4,0E0,0E0,0E0,0E0,0E0,0E0,0E0,0E0,0E0,0E0],"parents":[2147483647,0,0,2,2,3,3,4,4,5,5,6,6,8,8,9,9,10,10,11,11,12,12,16,16,18,18,20,20,21,21,22,22],"right_children":[2,-1,4,6,8,10,12,-1,14,16,18,20,22,-1,-1,-1,24,-1,26,-1,28,30,32,-1,-1,-1,-1,-1,-1,-1,-1,-1,-1],"split_conditions":[1.123E2,-3.4880092E0,1.224E2,1.148E2,1.234E2,1.133E2,1.16E2,9.914026E-1,4.88E1,1.126E2,1.14E2,1.152E2,1.167E2,3.566947E-1,8.8963723E-1,7.1370356E-2,4.88E1,-1.0425967E0,4.88E1,4.808291E-1,1.153E2,1.1627E2,1.188E2,3.348825E-1,2.126958E-1,-4.7867393E-1,2.7518768E-2,1.7174788E-1,3.4101447E-1,5.5166587E-2,-1.6534781E-1,1.9310376E-1,3.7127793E-1],"split_indices":[1,0,1,1,1,1,1,0,0,1,1,1,1,0,0,0,0,0,0,0,1,1,1,0,0,0,0,0,0,0,0,0,0],"split_type":[0,0,0,0,0,0,0,0,0,0,0,0,0,0,0,0,0,0,0,0,0,0,0,0,0,0,0,0,0,0,0,0,0],"sum_hessian":[1.312E3,7.2E1,1.24E3,1.183E3,5.7E1,1.54E2,1.029E3,3.8E1,1.9E1,9.3E1,6.1E1,2.26E2,8.03E2,1.5E1,4E0,3.6E1,5.7E1,1.5E1,4.6E1,2.6E1,2E2,1.22E2,6.81E2,3E1,2.7E1,3.9E1,7E0,6E0,1.94E2,1.6E1,1.06E2,5.33E2,1.48E2],"tree_param":{"num_deleted":"0","num_feature":"2","num_nodes":"33","size_leaf_vector":"1"}},{"base_weights":[-5.7646846E-3,-3.4536068E0,2.0309235E1,1.7202991E1,8.3369286E1,-1.0627898E1,2.1374434E1,9.817429E-1,5.0331062E1,1.999357E1,-5.688258E1,3.5191883E1,1.7446651E1,3.5335076E-1,8.8251996E-1,7.067613E-2,2.7894722E1,-1.0328223E0,-3.9876686E1,4.761988E-1,3.3347366E1,-1.3486137E1,2.2999857E1,3.3164153E-1,2.1064469E-1,-4.7400665E-1,2.7277907E-2,1.702757E-1,3.376219E-1,5.4647285E-2,-1.6370985E-1,1.9117622E-1,3.675901E-1],"categories":[],"categories_nodes":[],"categories_segments":[],"categories_sizes":[],"default_left":[0,0,0,0,0,0,0,0,0,0,0,0,0,0,0,0,0,0,0,0,0,0,0,0,0,0,0,0,0,0,0,0,0],"id":11,"left_children":[1,-1,3,5,7,9,11,-1,13,15,17,19,21,-1,-1,-1,23,-1,25,-1,27,29,31,-1,-1,-1,-1,-1,-1,-1,-1,-1,-1],"loss_changes":[9.218871E6,0E0,2.4165275E5,1.3768356E5,2.3428406E4,2.2067716E5,5.5286062E4,0E0,8.254844E3,9.403066E3,4.480364E4,3.6156562E3,1.3841822E5,0E0,0E0,0E0,1.3889258E3,0E0,1.5195391E4,0E0,7.858594E2,6.813916E3,3.5727156E4,0E0,0E0,0E0,0E0,0E0,0E0,0E0,0E0,0E0,0E0],"parents":[2147483647,0,0,2,2,3,3,4,4,5,5,6,6,8,8,9,9,10,10,11,11,12,12,16,16,18,18,20,20,21,21,22,22],"right_children":[2,-1,4,6,8,10,12,-1,14,16,18,20,22,-1,-1,-1,24,-1,26,-1,28,30,32,-1,-1,-1,-1,-1,-1,-1,-1,-1,-1],"split_conditions":[1.123E2,-3.4536068E0,1.224E2,1.148E2,1.234E2,1.133E2,1.16E2,9.817429E-1,4.88E1,1.126E2,1.14E2,1.152E2,1.167E2,3.5335076E-1,8.8251996E-1,7.067613E-2,4.88E1,-1.0328223E0,4.88E1,4.761988E-1,1.153E2,1.1627E2,1.188E2,3.3164153E-1,2.1064469E-1,-4.7400665E-1,2.7277907E-2,1.702757E-1,3.376219E-1,5.4647285E-2,-1.6370985E-1,1.9117622E-1,3.675901E-1],"split_indices":[1,0,1,1,1,1,1,0,0,1,1,1,1,0,0,0,0,0,0,0,1,1,1,0,0,0,0,0,0,0,0,0,0],"split_type":[0,0,0,0,0,0,0,0,0,0,0,0,0,0,0,0,0,0,0,0,0,0,0,0,0,0,0,0,0,0,0,0,0],"sum_hessian":[1.312E3,7.2E1,1.24E3,1.183E3,5.7E1,1.54E2,1.029E3,3.8E1,1.9E1,9.3E1,6.1E1,2.26E2,8.03E2,1.5E1,4E0,3.6E1,5.7E1,1.5E1,4.6E1,2.6E1,2E2,1.22E2,6.81E2,3E1,2.7E1,3.9E1,7E0,6E0,1.94E2,1.6E1,1.06E2,5.33E2,1.48E2],"tree_param":{"num_deleted":"0","num_feature":"2","num_nodes":"33","size_leaf_vector":"1"}},{"base_weights":[-6.217962E-3,-3.4195437E0,2.0108385E1,1.7031439E1,8.257383E1,-1.0527214E1,2.1162079E1,9.721772E-1,4.988956E1,1.980015E1,-5.633762E1,3.484428E1,1.7272749E1,3.5003826E-1,8.7545997E-1,6.998845E-2,2.7625118E1,-1.0231395E0,-3.948743E1,4.7161323E-1,3.3016396E1,-1.3352172E1,2.2770685E1,3.2843184E-1,2.086136E-1,-4.6938515E-1,2.7039183E-2,1.6881609E-1,3.3426276E-1,-1.1565469E-1,-4.6265277E-1,1.8926819E-1,3.639386E-1],"categories":[],"categories_nodes":[],"categories_segments":[],"categories_sizes":[],"default_left":[0,0,0,0,0,0,0,0,0,0,0,0,0,0,0,0,0,0,0,0,0,0,0,0,0,0,0,0,0,0,0,0,0],"id":12,"left_children":[1,-1,3,5,7,9,11,-1,13,15,17,19,21,-1,-1,-1,23,-1,25,-1,27,29,31,-1,-1,-1,-1,-1,-1,-1,-1,-1,-1],"loss_changes":[9.037889E6,0E0,2.3711738E5,1.3500328E5,2.2910094E4,2.1645836E5,5.4209188E4,0E0,8.1464297E3,9.222621E3,4.3991875E4,3.5535938E3,1.3567662E5,0E0,0E0,0E0,1.3618828E3,0E0,1.4902375E4,0E0,7.65E2,6.698047E3,3.502453E4,0E0,0E0,0E0,0E0,0E0,0E0,0E0,0E0,0E0,0E0],"parents":[2147483647,0,0,2,2,3,3,4,4,5,5,6,6,8,8,9,9,10,10,11,11,12,12,16,16,18,18,20,20,21,21,22,22],"right_children":[2,-1,4,6,8,10,12,-1,14,16,18,20,22,-1,-1,-1,24,-1,26,-1,28,30,32,-1,-1,-1,-1,-1,-1,-1,-1,-1,-1],"split_conditions":[1.123E2,-3.4195437E0,1.224E2,1.148E2,1.234E2,1.133E2,1.16E2,9.721772E-1,4.88E1,1.126E2,1.14E2,1.152E2,1.167E2,3.5003826E-1,8.7545997E-1,6.998845E-2,4.88E1,-1.0231395E0,4.88E1,4.7161323E-1,1.153E2,1.165E2,1.188E2,3.2843184E-1,2.086136E-1,-4.6938515E-1,2.7039183E-2,1.6881609E-1,3.3426276E-1,-1.1565469E-1,-4.6265277E-1,1.8926819E-1,3.639386E-1],"split_indices":[1,0,1,1,1,1,1,0,0,1,1,1,1,0,0,0,0,0,0,0,1,1,1,0,0,0,0,0,0,0,0,0,0],"split_type":[0,0,0,0,0,0,0,0,0,0,0,0,0,0,0,0,0,0,0,0,0,0,0,0,0,0,0,0,0,0,0,0,0],"sum_hessian":[1.312E3,7.2E1,1.24E3,1.183E3,5.7E1,1.54E2,1.029E3,3.8E1,1.9E1,9.3E1,6.1E1,2.26E2,8.03E2,1.5E1,4E0,3.6E1,5.7E1,1.5E1,4.6E1,2.6E1,2E2,1.22E2,6.81E2,3E1,2.7E1,3.9E1,7E0,6E0,1.94E2,1.17E2,5E0,5.33E2,1.48E2],"tree_param":{"num_deleted":"0","num_feature":"2","num_nodes":"33","size_leaf_vector":"1"}},{"base_weights":[-7.0233196E-3,-3.3858166E0,1.9909138E1,1.6861193E1,8.178599E1,-1.0427492E1,2.0951372E1,9.627048E-1,4.9451935E1,1.9608599E1,-5.5797897E1,3.4500107E1,1.7099987E1,3.4675667E-1,8.68456E-1,6.93073E-2,2.7358126E1,-1.0135475E0,-3.910199E1,4.670717E-1,3.268871E1,-1.3223346E1,2.2543783E1,3.2525352E-1,2.0660192E-1,-4.6480888E-1,2.6802596E-2,1.6736904E-1,3.3093703E-1,5.5221736E-2,-1.6078022E-1,1.8737903E-1,3.6032352E-1],"categories":[],"categories_nodes":[],"categories_segments":[],"categories_sizes":[],"default_left":[0,0,0,0,0,0,0,0,0,0,0,0,0,0,0,0,0,0,0,0,0,0,0,0,0,0,0,0,0,0,0,0,0],"id":13,"left_children":[1,-1,3,5,7,9,11,-1,13,15,17,19,21,-1,-1,-1,23,-1,25,-1,27,29,31,-1,-1,-1,-1,-1,-1,-1,-1,-1,-1],"loss_changes":[8.86044E6,0E0,2.3267012E5,1.323714E5,2.2403094E4,2.1232031E5,5.3156875E4,0E0,8.0393477E3,9.045652E3,4.3194844E4,3.4925938E3,1.3301766E5,0E0,0E0,0E0,1.3353828E3,0E0,1.4615016E4,0E0,7.4465625E2,6.6708105E3,3.4335906E4,0E0,0E0,0E0,0E0,0E0,0E0,0E0,0E0,0E0,0E0],"parents":[2147483647,0,0,2,2,3,3,4,4,5,5,6,6,8,8,9,9,10,10,11,11,12,12,16,16,18,18,20,20,21,21,22,22],"right_children":[2,-1,4,6,8,10,12,-1,14,16,18,20,22,-1,-1,-1,24,-1,26,-1,28,30,32,-1,-1,-1,-1,-1,-1,-1,-1,-1,-1],"split_conditions":[1.123E2,-3.3858166E0,1.224E2,1.148E2,1.234E2,1.133E2,1.16E2,9.627048E-1,4.88E1,1.126E2,1.14E2,1.152E2,1.167E2,3.4675667E-1,8.68456E-1,6.93073E-2,4.88E1,-1.0135475E0,4.88E1,4.670717E-1,1.153E2,1.1627E2,1.188E2,3.2525352E-1,2.0660192E-1,-4.6480888E-1,2.6802596E-2,1.6736904E-1,3.3093703E-1,5.5221736E-2,-1.6078022E-1,1.8737903E-1,3.6032352E-1],"split_indices":[1,0,1,1,1,1,1,0,0,1,1,1,1,0,0,0,0,0,0,0,1,1,1,0,0,0,0,0,0,0,0,0,0],"split_type":[0,0,0,0,0,0,0,0,0,0,0,0,0,0,0,0,0,0,0,0,0,0,0,0,0,0,0,0,0,0,0,0,0],"sum_hessian":[1.312E3,7.2E1,1.24E3,1.183E3,5.7E1,1.54E2,1.029E3,3.8E1,1.9E1,9.3E1,6.1E1,2.26E2,8.03E2,1.5E1,4E0,3.6E1,5.7E1,1.5E1,4.6E1,2.6E1,2E2,1.22E2,6.81E2,3E1,2.7E1,3.9E1,7E0,6E0,1.94E2,1.6E1,1.06E2,5.33E2,1.48E2],"tree_param":{"num_deleted":"0","num_feature":"2","num_nodes":"33","size_leaf_vector":"1"}},{"base_weights":[-7.454889E-3,-3.3524225E0,1.9712244E1,1.6693045E1,8.100568E1,-1.0328717E1,2.074322E1,9.533245E-1,4.9018185E1,1.9418896E1,-5.5263344E1,3.415936E1,1.6929531E1,3.4350598E-1,8.615083E-1,6.863268E-2,2.7093712E1,-1.0040455E0,-3.872031E1,4.6257368E-1,3.2364304E1,-1.3091984E1,2.2319143E1,3.2210585E-1,2.0460968E-1,-4.6027723E-1,2.6568145E-2,1.6593453E-1,3.2764468E-1,-1.1320673E-1,-4.574577E-1,1.8550876E-1,3.567442E-1],"categories":[],"categories_nodes":[],"categories_segments":[],"categories_sizes":[],"default_left":[0,0,0,0,0,0,0,0,0,0,0,0,0,0,0,0,0,0,0,0,0,0,0,0,0,0,0,0,0,0,0,0,0],"id":14,"left_children":[1,-1,3,5,7,9,11,-1,13,15,17,19,21,-1,-1,-1,23,-1,25,-1,27,29,31,-1,-1,-1,-1,-1,-1,-1,-1,-1,-1],"loss_changes":[8.686495E6,0E0,2.283036E5,1.29794625E5,2.1907062E4,2.0826131E5,5.2121625E4,0E0,7.9335938E3,8.87209E3,4.241222E4,3.4325625E3,1.3038294E5,0E0,0E0,0E0,1.3093984E3,0E0,1.4333203E4,0E0,7.248281E2,6.5964473E3,3.366072E4,0E0,0E0,0E0,0E0,0E0,0E0,0E0,0E0,0E0,0E0],"parents":[2147483647,0,0,2,2,3,3,4,4,5,5,6,6,8,8,9,9,10,10,11,11,12,12,16,16,18,18,20,20,21,21,22,22],"right_children":[2,-1,4,6,8,10,12,-1,14,16,18,20,22,-1,-1,-1,24,-1,26,-1,28,30,32,-1,-1,-1,-1,-1,-1,-1,-1,-1,-1],"split_conditions":[1.123E2,-3.3524225E0,1.224E2,1.148E2,1.234E2,1.133E2,1.16E2,9.533245E-1,4.88E1,1.126E2,1.14E2,1.152E2,1.167E2,3.4350598E-1,8.615083E-1,6.863268E-2,4.88E1,-1.0040455E0,4.88E1,4.6257368E-1,1.153E2,1.165E2,1.188E2,3.2210585E-1,2.0460968E-1,-4.6027723E-1,2.6568145E-2,1.6593453E-1,3.2764468E-1,-1.1320673E-1,-4.574577E-1,1.8550876E-1,3.567442E-1],"split_indices":[1,0,1,1,1,1,1,0,0,1,1,1,1,0,0,0,0,0,0,0,1,1,1,0,0,0,0,0,0,0,0,0,0],"split_type":[0,0,0,0,0,0,0,0,0,0,0,0,0,0,0,0,0,0,0,0,0,0,0,0,0,0,0,0,0,0,0,0,0],"sum_hessian":[1.312E3,7.2E1,1.24E3,1.183E3,5.7E1,1.54E2,1.029E3,3.8E1,1.9E1,9.3E1,6.1E1,2.26E2,8.03E2,1.5E1,4E0,3.6E1,5.7E1,1.5E1,4.6E1,2.6E1,2E2,1.22E2,6.81E2,3E1,2.7E1,3.9E1,7E0,6E0,1.94E2,1.17E2,5E0,5.33E2,1.48E2],"tree_param":{"num_deleted":"0","num_feature":"2","num_nodes":"33","size_leaf_vector":"1"}},{"base_weights":[-8.212646E-3,-3.3193572E0,1.9516943E1,1.65262E1,8.023285E1,-1.0230854E1,2.0536701E1,9.440358E-1,4.8588253E1,1.9231066E1,-5.473391E1,3.3821983E1,1.6760216E1,3.402856E-1,8.546162E-1,6.796519E-2,2.6831877E1,-9.946328E-1,-3.834234E1,4.5811915E-1,3.2043125E1,-1.2965691E1,2.2096764E1,3.1898892E-1,2.0263685E-1,-4.5578963E-1,2.633583E-2,1.6451205E-1,3.243851E-1,5.576746E-2,-1.579051E-1,1.8365738E-1,3.5320058E-1],"categories":[],"categories_nodes":[],"categories_segments":[],"categories_sizes":[],"default_left":[0,0,0,0,0,0,0,0,0,0,0,0,0,0,0,0,0,0,0,0,0,0,0,0,0,0,0,0,0,0,0,0,0],"id":15,"left_children":[1,-1,3,5,7,9,11,-1,13,15,17,19,21,-1,-1,-1,23,-1,25,-1,27,29,31,-1,-1,-1,-1,-1,-1,-1,-1,-1,-1],"loss_changes":[8.515948E6,0E0,2.240219E5,1.2726422E5,2.1421875E4,2.0428012E5,5.110997E4,0E0,7.829164E3,8.701828E3,4.1643797E4,3.3735781E3,1.2782805E5,0E0,0E0,0E0,1.283918E3,0E0,1.4056828E4,0E0,7.054844E2,6.5306816E3,3.299878E4,0E0,0E0,0E0,0E0,0E0,0E0,0E0,0E0,0E0,0E0],"parents":[2147483647,0,0,2,2,3,3,4,4,5,5,6,6,8,8,9,9,10,10,11,11,12,12,16,16,18,18,20,20,21,21,22,22],"right_children":[2,-1,4,6,8,10,12,-1,14,16,18,20,22,-1,-1,-1,24,-1,26,-1,28,30,32,-1,-1,-1,-1,-1,-1,-1,-1,-1,-1],"split_conditions":[1.123E2,-3.3193572E0,1.224E2,1.148E2,1.234E2,1.133E2,1.16E2,9.440358E-1,4.88E1,1.126E2,1.14E2,1.152E2,1.167E2,3.402856E-1,8.546162E-1,6.796519E-2,4.88E1,-9.946328E-1,4.88E1,4.5811915E-1,1.153E2,1.1627E2,1.188E2,3.1898892E-1,2.0263685E-1,-4.5578963E-1,2.633583E-2,1.6451205E-1,3.243851E-1,5.576746E-2,-1.579051E-1,1.8365738E-1,3.5320058E-1],"split_indices":[1,0,1,1,1,1,1,0,0,1,1,1,1,0,0,0,0,0,0,0,1,1,1,0,0,0,0,0,0,0,0,0,0],"split_type":[0,0,0,0,0,0,0,0,0,0,0,0,0,0,0,0,0,0,0,0,0,0,0,0,0,0,0,0,0,0,0,0,0],"sum_hessian":[1.312E3,7.2E1,1.24E3,1.183E3,5.7E1,1.54E2,1.029E3,3.8E1,1.9E1,9.3E1,6.1E1,2.26E2,8.03E2,1.5E1,4E0,3.6E1,5.7E1,1.5E1,4.6E1,2.6E1,2E2,1.22E2,6.81E2,3E1,2.7E1,3.9E1,7E0,6E0,1.94E2,1.6E1,1.06E2,5.33E2,1.48E2],"tree_param":{"num_deleted":"0","num_feature":"2","num_nodes":"33","size_leaf_vector":"1"}},{"base_weights":[-8.616649E-3,-3.2866185E0,1.9323935E1,1.6361397E1,7.94674E1,-1.0133925E1,2.0332672E1,9.3483764E-1,4.816213E1,1.9045021E1,-5.4209526E1,3.348792E1,1.6593153E1,3.3709556E-1,8.477793E-1,6.7303635E-2,2.6572563E1,-9.853081E-1,-3.7968033E1,4.5370755E-1,3.1725111E1,-1.2836873E1,2.1876583E1,3.1590214E-1,2.0068285E-1,-4.513455E-1,2.6105652E-2,1.6310215E-1,3.2115772E-1,-1.1080827E-1,-4.523297E-1,1.8182427E-1,3.4969223E-1],"categories":[],"categories_nodes":[],"categories_segments":[],"categories_sizes":[],"default_left":[0,0,0,0,0,0,0,0,0,0,0,0,0,0,0,0,0,0,0,0,0,0,0,0,0,0,0,0,0,0,0,0,0],"id":16,"left_children":[1,-1,3,5,7,9,11,-1,13,15,17,19,21,-1,-1,-1,23,-1,25,-1,27,29,31,-1,-1,-1,-1,-1,-1,-1,-1,-1,-1],"loss_changes":[8.3487675E6,0E0,2.198179E5,1.2478678E5,2.0947188E4,2.0037473E5,5.011447E4,0E0,7.7260273E3,8.534875E3,4.0889312E4,3.3155938E3,1.25296E5,0E0,0E0,0E0,1.2589375E3,0E0,1.3785773E4,0E0,6.86625E2,6.496133E3,3.2349969E4,0E0,0E0,0E0,0E0,0E0,0E0,0E0,0E0,0E0,0E0],"parents":[2147483647,0,0,2,2,3,3,4,4,5,5,6,6,8,8,9,9,10,10,11,11,12,12,16,16,18,18,20,20,21,21,22,22],"right_children":[2,-1,4,6,8,10,12,-1,14,16,18,20,22,-1,-1,-1,24,-1,26,-1,28,30,32,-1,-1,-1,-1,-1,-1,-1,-1,-1,-1],"split_conditions":[1.123E2,-3.2866185E0,1.224E2,1.148E2,1.234E2,1.133E2,1.16E2,9.3483764E-1,4.88E1,1.126E2,1.14E2,1.152E2,1.167E2,3.3709556E-1,8.477793E-1,6.7303635E-2,4.88E1,-9.853081E-1,4.88E1,4.5370755E-1,1.153E2,1.165E2,1.188E2,3.1590214E-1,2.0068285E-1,-4.513455E-1,2.6105652E-2,1.6310215E-1,3.2115772E-1,-1.1080827E-1,-4.523297E-1,1.8182427E-1,3.4969223E-1],"split_indices":[1,0,1,1,1,1,1,0,0,1,1,1,1,0,0,0,0,0,0,0,1,1,1,0,0,0,0,0,0,0,0,0,0],"split_type":[0,0,0,0,0,0,0,0,0,0,0,0,0,0,0,0,0,0,0,0,0,0,0,0,0,0,0,0,0,0,0,0,0],"sum_hessian":[1.312E3,7.2E1,1.24E3,1.183E3,5.7E1,1.54E2,1.029E3,3.8E1,1.9E1,9.3E1,6.1E1,2.26E2,8.03E2,1.5E1,4E0,3.6E1,5.7E1,1.5E1,4.6E1,2.6E1,2E2,1.22E2,6.81E2,3E1,2.7E1,3.9E1,7E0,6E0,1.94E2,1.17E2,5E0,5.33E2,1.48E2],"tree_param":{"num_deleted":"0","num_feature":"2","num_nodes":"33","size_leaf_vector":"1"}},{"base_weights":[-9.360413E-3,-3.2542028E0,1.9132465E1,1.6197847E1,7.870929E1,-1.0037928E1,2.0130222E1,9.257292E-1,4.773975E1,1.8860771E1,-5.369018E1,3.315716E1,1.6427181E1,3.3393526E-1,8.4099704E-1,6.66486E-2,2.6315735E1,-9.76071E-1,-3.7597393E1,4.4933823E-1,3.141026E1,-1.2713111E1,2.1658602E1,3.1284487E-1,1.987477E-1,-4.469448E-1,2.5877075E-2,1.6170427E-1,3.1796253E-1,-1.0970986E-1,-4.485603E-1,1.8000944E-1,3.4621897E-1],"categories":[],"categories_nodes":[],"categories_segments":[],"categories_sizes":[],"default_left":[0,0,0,0,0,0,0,0,0,0,0,0,0,0,0,0,0,0,0,0,0,0,0,0,0,0,0,0,0,0,0,0,0],"id":17,"left_children":[1,-1,3,5,7,9,11,-1,13,15,17,19,21,-1,-1,-1,23,-1,25,-1,27,29,31,-1,-1,-1,-1,-1,-1,-1,-1,-1,-1],"loss_changes":[8.1848495E6,0E0,2.1569562E5,1.2235406E5,2.0482938E4,1.9654411E5,4.914178E4,0E0,7.624176E3,8.371098E3,4.014847E4,3.2586094E3,1.2284125E5,0E0,0E0,0E0,1.2344336E3,0E0,1.3519922E4,0E0,6.6821875E2,6.39551E3,3.1714E4,0E0,0E0,0E0,0E0,0E0,0E0,0E0,0E0,0E0,0E0],"parents":[2147483647,0,0,2,2,3,3,4,4,5,5,6,6,8,8,9,9,10,10,11,11,12,12,16,16,18,18,20,20,21,21,22,22],"right_children":[2,-1,4,6,8,10,12,-1,14,16,18,20,22,-1,-1,-1,24,-1,26,-1,28,30,32,-1,-1,-1,-1,-1,-1,-1,-1,-1,-1],"split_conditions":[1.123E2,-3.2542028E0,1.224E2,1.148E2,1.234E2,1.133E2,1.16E2,9.257292E-1,4.88E1,1.126E2,1.14E2,1.152E2,1.167E2,3.3393526E-1,8.4099704E-1,6.66486E-2,4.88E1,-9.76071E-1,4.88E1,4.4933823E-1,1.153E2,1.165E2,1.188E2,3.1284487E-1,1.987477E-1,-4.469448E-1,2.5877075E-2,1.6170427E-1,3.1796253E-1,-1.0970986E-1,-4.485603E-1,1.8000944E-1,3.4621897E-1],"split_indices":[1,0,1,1,1,1,1,0,0,1,1,1,1,0,0,0,0,0,0,0,1,1,1,0,0,0,0,0,0,0,0,0,0],"split_type":[0,0,0,0,0,0,0,0,0,0,0,0,0,0,0,0,0,0,0,0,0,0,0,0,0,0,0,0,0,0,0,0,0],"sum_hessian":[1.312E3,7.2E1,1.24E3,1.183E3,5.7E1,1.54E2,1.029E3,3.8E1,1.9E1,9.3E1,6.1E1,2.26E2,8.03E2,1.5E1,4E0,3.6E1,5.7E1,1.5E1,4.6E1,2.6E1,2E2,1.22E2,6.81E2,3E1,2.7E1,3.9E1,7E0,6E0,1.94E2,1.17E2,5E0,5.33E2,1.48E2],"tree_param":{"num_deleted":"0","num_feature":"2","num_nodes":"33","size_leaf_vector":"1"}},{"base_weights":[-1.0072986E-2,-3.2221062E0,1.894291E1,1.6035948E1,7.795843E1,-9.942828E0,1.9929808E1,9.1670936E-1,4.7321106E1,1.8678312E1,-5.3175804E1,3.282971E1,1.6262882E1,3.3080474E-1,8.34269E-1,6.600012E-2,2.6061396E1,-9.669203E-1,-3.7230366E1,4.4501126E-1,3.1098574E1,-1.2590547E1,2.1442806E1,3.098171E-1,1.9683136E-1,-4.4258693E-1,2.5650633E-2,1.6031843E-1,3.1479952E-1,5.7317324E-2,-1.5383895E-1,1.7821288E-1,3.427803E-1],"categories":[],"categories_nodes":[],"categories_segments":[],"categories_sizes":[],"default_left":[0,0,0,0,0,0,0,0,0,0,0,0,0,0,0,0,0,0,0,0,0,0,0,0,0,0,0,0,0,0,0,0,0],"id":18,"left_children":[1,-1,3,5,7,9,11,-1,13,15,17,19,21,-1,-1,-1,23,-1,25,-1,27,29,31,-1,-1,-1,-1,-1,-1,-1,-1,-1,-1],"loss_changes":[8.024151E6,0E0,2.1165072E5,1.1996884E5,2.0028688E4,1.9278667E5,4.8188156E4,0E0,7.523586E3,8.210453E3,3.9421E4,3.2025781E3,1.204347E5,0E0,0E0,0E0,1.2104023E3,0E0,1.3259199E4,0E0,6.502656E2,6.383375E3,3.1090531E4,0E0,0E0,0E0,0E0,0E0,0E0,0E0,0E0,0E0,0E0],"parents":[2147483647,0,0,2,2,3,3,4,4,5,5,6,6,8,8,9,9,10,10,11,11,12,12,16,16,18,18,20,20,21,21,22,22],"right_children":[2,-1,4,6,8,10,12,-1,14,16,18,20,22,-1,-1,-1,24,-1,26,-1,28,30,32,-1,-1,-1,-1,-1,-1,-1,-1,-1,-1],"split_conditions":[1.123E2,-3.2221062E0,1.224E2,1.148E2,1.234E2,1.133E2,1.16E2,9.1670936E-1,4.88E1,1.126E2,1.14E2,1.152E2,1.167E2,3.3080474E-1,8.34269E-1,6.600012E-2,4.88E1,-9.669203E-1,4.88E1,4.4501126E-1,1.153E2,1.1627E2,1.188E2,3.098171E-1,1.9683136E-1,-4.4258693E-1,2.5650633E-2,1.6031843E-1,3.1479952E-1,5.7317324E-2,-1.5383895E-1,1.7821288E-1,3.427803E-1],"split_indices":[1,0,1,1,1,1,1,0,0,1,1,1,1,0,0,0,0,0,0,0,1,1,1,0,0,0,0,0,0,0,0,0,0],"split_type":[0,0,0,0,0,0,0,0,0,0,0,0,0,0,0,0,0,0,0,0,0,0,0,0,0,0,0,0,0,0,0,0,0],"sum_hessian":[1.312E3,7.2E1,1.24E3,1.183E3,5.7E1,1.54E2,1.029E3,3.8E1,1.9E1,9.3E1,6.1E1,2.26E2,8.03E2,1.5E1,4E0,3.6E1,5.7E1,1.5E1,4.6E1,2.6E1,2E2,1.22E2,6.81E2,3E1,2.7E1,3.9E1,7E0,6E0,1.94E2,1.6E1,1.06E2,5.33E2,1.48E2],"tree_param":{"num_deleted":"0","num_feature":"2","num_nodes":"33","size_leaf_vector":"1"}},{"base_weights":[-1.0442544E-2,-3.1903267E0,1.8755579E1,1.587603E1,7.7214745E1,-9.848635E0,1.9731804E1,9.0777755E-1,4.690614E1,1.8497627E1,-5.2666378E1,3.2505447E1,1.6100773E1,3.277034E-1,8.2759476E-1,6.535816E-2,2.5809515E1,-9.578555E-1,-3.6866947E1,4.40726E-1,3.0789932E1,-1.2465451E1,2.1229137E1,3.068189E-1,1.9493328E-1,-4.3827188E-1,2.542633E-2,1.5894409E-1,3.1166744E-1,-1.0738357E-1,-4.4354063E-1,1.76434E-1,3.3937556E-1],"categories":[],"categories_nodes":[],"categories_segments":[],"categories_sizes":[],"default_left":[0,0,0,0,0,0,0,0,0,0,0,0,0,0,0,0,0,0,0,0,0,0,0,0,0,0,0,0,0,0,0,0,0],"id":19,"left_children":[1,-1,3,5,7,9,11,-1,13,15,17,19,21,-1,-1,-1,23,-1,25,-1,27,29,31,-1,-1,-1,-1,-1,-1,-1,-1,-1,-1],"loss_changes":[7.866623E6,0E0,2.0767925E5,1.1763347E5,1.9584375E4,1.8910127E5,4.7249562E4,0E0,7.424258E3,8.052871E3,3.8706688E4,3.1475156E3,1.18049016E5,0E0,0E0,0E0,1.1868516E3,0E0,1.3003547E4,0E0,6.328125E2,6.2978906E3,3.0479312E4,0E0,0E0,0E0,0E0,0E0,0E0,0E0,0E0,0E0,0E0],"parents":[2147483647,0,0,2,2,3,3,4,4,5,5,6,6,8,8,9,9,10,10,11,11,12,12,16,16,18,18,20,20,21,21,22,22],"right_children":[2,-1,4,6,8,10,12,-1,14,16,18,20,22,-1,-1,-1,24,-1,26,-1,28,30,32,-1,-1,-1,-1,-1,-1,-1,-1,-1,-1],"split_conditions":[1.123E2,-3.1903267E0,1.224E2,1.148E2,1.234E2,1.133E2,1.16E2,9.0777755E-1,4.88E1,1.126E2,1.14E2,1.152E2,1.167E2,3.277034E-1,8.2759476E-1,6.535816E-2,4.88E1,-9.578555E-1,4.88E1,4.40726E-1,1.153E2,1.165E2,1.188E2,3.068189E-1,1.9493328E-1,-4.3827188E-1,2.542633E-2,1.5894409E-1,3.1166744E-1,-1.0738357E-1,-4.4354063E-1,1.76434E-1,3.3937556E-1],"split_indices":[1,0,1,1,1,1,1,0,0,1,1,1,1,0,0,0,0,0,0,0,1,1,1,0,0,0,0,0,0,0,0,0,0],"split_type":[0,0,0,0,0,0,0,0,0,0,0,0,0,0,0,0,0,0,0,0,0,0,0,0,0,0,0,0,0,0,0,0,0],"sum_hessian":[1.312E3,7.2E1,1.24E3,1.183E3,5.7E1,1.54E2,1.029E3,3.8E1,1.9E1,9.3E1,6.1E1,2.26E2,8.03E2,1.5E1,4E0,3.6E1,5.7E1,1.5E1,4.6E1,2.6E1,2E2,1.22E2,6.81E2,3E1,2.7E1,3.9E1,7E0,6E0,1.94E2,1.17E2,5E0,5.33E2,1.48E2],"tree_param":{"num_deleted":"0","num_feature":"2","num_nodes":"33","size_leaf_vector":"1"}},{"base_weights":[-1.1146237E-2,-3.1588607E0,1.856974E1,1.5717326E1,7.647817E1,-9.755331E0,1.953533E1,8.989326E-1,4.649485E1,1.8318676E1,-5.2161804E1,3.2184425E1,1.5939709E1,3.246312E-1,8.209741E-1,6.472214E-2,2.5560062E1,-9.4887525E-1,-3.650705E1,4.364819E-1,3.0484396E1,-1.2345298E1,2.1017591E1,3.0384964E-1,1.9305344E-1,-4.3399855E-1,2.5203628E-2,1.5758178E-1,3.08567E-1,5.7788372E-2,-1.5109457E-1,1.7467277E-1,3.360048E-1],"categories":[],"categories_nodes":[],"categories_segments":[],"categories_sizes":[],"default_left":[0,0,0,0,0,0,0,0,0,0,0,0,0,0,0,0,0,0,0,0,0,0,0,0,0,0,0,0,0,0,0,0,0],"id":20,"left_children":[1,-1,3,5,7,9,11,-1,13,15,17,19,21,-1,-1,-1,23,-1,25,-1,27,29,31,-1,-1,-1,-1,-1,-1,-1,-1,-1,-1],"loss_changes":[7.7121735E6,0E0,2.0378494E5,1.1534019E5,1.9149688E4,1.8548606E5,4.633275E4,0E0,7.326168E3,7.898342E3,3.8005297E4,3.0933594E3,1.1573639E5,0E0,0E0,0E0,1.1637578E3,0E0,1.2752773E4,0E0,6.157656E2,6.249369E3,2.9880188E4,0E0,0E0,0E0,0E0,0E0,0E0,0E0,0E0,0E0,0E0],"parents":[2147483647,0,0,2,2,3,3,4,4,5,5,6,6,8,8,9,9,10,10,11,11,12,12,16,16,18,18,20,20,21,21,22,22],"right_children":[2,-1,4,6,8,10,12,-1,14,16,18,20,22,-1,-1,-1,24,-1,26,-1,28,30,32,-1,-1,-1,-1,-1,-1,-1,-1,-1,-1],"split_conditions":[1.123E2,-3.1588607E0,1.224E2,1.148E2,1.234E2,1.133E2,1.16E2,8.989326E-1,4.88E1,1.126E2,1.14E2,1.152E2,1.167E2,3.246312E-1,8.209741E-1,6.472214E-2,4.88E1,-9.4887525E-1,4.88E1,4.364819E-1,1.153E2,1.1627E2,1.188E2,3.0384964E-1,1.9305344E-1,-4.3399855E-1,2.5203628E-2,1.5758178E-1,3.08567E-1,5.7788372E-2,-1.5109457E-1,1.7467277E-1,3.360048E-1],"split_indices":[1,0,1,1,1,1,1,0,0,1,1,1,1,0,0,0,0,0,0,0,1,1,1,0,0,0,0,0,0,0,0,0,0],"split_type":[0,0,0,0,0,0,0,0,0,0,0,0,0,0,0,0,0,0,0,0,0,0,0,0,0,0,0,0,0,0,0,0,0],"sum_hessian":[1.312E3,7.2E1,1.24E3,1.183E3,5.7E1,1.54E2,1.029E3,3.8E1,1.9E1,9.3E1,6.1E1,2.26E2,8.03E2,1.5E1,4E0,3.6E1,5.7E1,1.5E1,4.6E1,2.6E1,2E2,1.22E2,6.81E2,3E1,2.7E1,3.9E1,7E0,6E0,1.94E2,1.6E1,1.06E2,5.33E2,1.48E2],"tree_param":{"num_deleted":"0","num_feature":"2","num_nodes":"33","size_leaf_vector":"1"}},{"base_weights":[-1.1486975E-2,-3.1277046E0,1.838611E1,1.5560592E1,7.574864E1,-9.662901E0,1.9341253E1,8.901738E-1,4.608717E1,1.8141478E1,-5.1662075E1,3.1866537E1,1.5780828E1,3.2158768E-1,8.144063E-1,6.409265E-2,2.5313036E1,-9.3997985E-1,-3.6150658E1,4.322789E-1,3.0181845E1,-1.222258E1,2.0808159E1,3.0090934E-1,1.9119184E-1,-4.2976683E-1,2.4983061E-2,1.5623099E-1,3.0549687E-1,-1.0510392E-1,-4.3858507E-1,1.7292921E-1,3.3266735E-1],"categories":[],"categories_nodes":[],"categories_segments":[],"categories_sizes":[],"default_left":[0,0,0,0,0,0,0,0,0,0,0,0,0,0,0,0,0,0,0,0,0,0,0,0,0,0,0,0,0,0,0,0,0],"id":21,"left_children":[1,-1,3,5,7,9,11,-1,13,15,17,19,21,-1,-1,-1,23,-1,25,-1,27,29,31,-1,-1,-1,-1,-1,-1,-1,-1,-1,-1],"loss_changes":[7.5607705E6,0E0,1.9996116E5,1.1309484E5,1.87245E4,1.8194017E5,4.5430312E4,0E0,7.2293125E3,7.746758E3,3.7316688E4,3.0401719E3,1.13443375E5,0E0,0E0,0E0,1.1411133E3,0E0,1.2506855E4,0E0,5.991094E2,6.2015293E3,2.9292781E4,0E0,0E0,0E0,0E0,0E0,0E0,0E0,0E0,0E0,0E0],"parents":[2147483647,0,0,2,2,3,3,4,4,5,5,6,6,8,8,9,9,10,10,11,11,12,12,16,16,18,18,20,20,21,21,22,22],"right_children":[2,-1,4,6,8,10,12,-1,14,16,18,20,22,-1,-1,-1,24,-1,26,-1,28,30,32,-1,-1,-1,-1,-1,-1,-1,-1,-1,-1],"split_conditions":[1.123E2,-3.1277046E0,1.224E2,1.148E2,1.234E2,1.133E2,1.16E2,8.901738E-1,4.88E1,1.126E2,1.14E2,1.152E2,1.167E2,3.2158768E-1,8.144063E-1,6.409265E-2,4.88E1,-9.3997985E-1,4.88E1,4.322789E-1,1.153E2,1.165E2,1.188E2,3.0090934E-1,1.9119184E-1,-4.2976683E-1,2.4983061E-2,1.5623099E-1,3.0549687E-1,-1.0510392E-1,-4.3858507E-1,1.7292921E-1,3.3266735E-1],"split_indices":[1,0,1,1,1,1,1,0,0,1,1,1,1,0,0,0,0,0,0,0,1,1,1,0,0,0,0,0,0,0,0,0,0],"split_type":[0,0,0,0,0,0,0,0,0,0,0,0,0,0,0,0,0,0,0,0,0,0,0,0,0,0,0,0,0,0,0,0,0],"sum_hessian":[1.312E3,7.2E1,1.24E3,1.183E3,5.7E1,1.54E2,1.029E3,3.8E1,1.9E1,9.3E1,6.1E1,2.26E2,8.03E2,1.5E1,4E0,3.6E1,5.7E1,1.5E1,4.6E1,2.6E1,2E2,1.22E2,6.81E2,3E1,2.7E1,3.9E1,7E0,6E0,1.94E2,1.17E2,5E0,5.33E2,1.48E2],"tree_param":{"num_deleted":"0","num_feature":"2","num_nodes":"33","size_leaf_vector":"1"}},{"base_weights":[-1.2148413E-2,-3.0968564E0,1.8203949E1,1.5405057E1,7.502607E1,-9.571354E0,1.9148687E1,8.8150007E-1,4.5683098E1,1.7965994E1,-5.116715E1,3.1551826E1,1.5622989E1,3.1857273E-1,8.078911E-1,6.3469104E-2,2.5068407E1,-9.311673E-1,-3.5797775E1,4.2811647E-1,2.9882338E1,-1.2104775E1,2.0600836E1,2.979974E-1,1.8934849E-1,-4.2557678E-1,2.4764633E-2,1.548917E-1,3.0245772E-1,5.823357E-2,-1.4840041E-1,1.7120333E-1,3.2936326E-1],"categories":[],"categories_nodes":[],"categories_segments":[],"categories_sizes":[],"default_left":[0,0,0,0,0,0,0,0,0,0,0,0,0,0,0,0,0,0,0,0,0,0,0,0,0,0,0,0,0,0,0,0,0],"id":22,"left_children":[1,-1,3,5,7,9,11,-1,13,15,17,19,21,-1,-1,-1,23,-1,25,-1,27,29,31,-1,-1,-1,-1,-1,-1,-1,-1,-1,-1],"loss_changes":[7.412326E6,0E0,1.9621153E5,1.1089016E5,1.8308531E4,1.7846214E5,4.4548688E4,0E0,7.133672E3,7.5981074E3,3.664042E4,2.987875E3,1.1122116E5,0E0,0E0,0E0,1.1188984E3,0E0,1.2265707E4,0E0,5.829531E2,6.118119E3,2.8716906E4,0E0,0E0,0E0,0E0,0E0,0E0,0E0,0E0,0E0,0E0],"parents":[2147483647,0,0,2,2,3,3,4,4,5,5,6,6,8,8,9,9,10,10,11,11,12,12,16,16,18,18,20,20,21,21,22,22],"right_children":[2,-1,4,6,8,10,12,-1,14,16,18,20,22,-1,-1,-1,24,-1,26,-1,28,30,32,-1,-1,-1,-1,-1,-1,-1,-1,-1,-1],"split_conditions":[1.123E2,-3.0968564E0,1.224E2,1.148E2,1.234E2,1.133E2,1.16E2,8.8150007E-1,4.88E1,1.126E2,1.14E2,1.152E2,1.167E2,3.1857273E-1,8.078911E-1,6.3469104E-2,4.88E1,-9.311673E-1,4.88E1,4.2811647E-1,1.153E2,1.1627E2,1.188E2,2.979974E-1,1.8934849E-1,-4.2557678E-1,2.4764633E-2,1.548917E-1,3.0245772E-1,5.823357E-2,-1.4840041E-1,1.7120333E-1,3.2936326E-1],"split_indices":[1,0,1,1,1,1,1,0,0,1,1,1,1,0,0,0,0,0,0,0,1,1,1,0,0,0,0,0,0,0,0,0,0],"split_type":[0,0,0,0,0,0,0,0,0,0,0,0,0,0,0,0,0,0,0,0,0,0,0,0,0,0,0,0,0,0,0,0,0],"sum_hessian":[1.312E3,7.2E1,1.24E3,1.183E3,5.7E1,1.54E2,1.029E3,3.8E1,1.9E1,9.3E1,6.1E1,2.26E2,8.03E2,1.5E1,4E0,3.6E1,5.7E1,1.5E1,4.6E1,2.6E1,2E2,1.22E2,6.81E2,3E1,2.7E1,3.9E1,7E0,6E0,1.94E2,1.6E1,1.06E2,5.33E2,1.48E2],"tree_param":{"num_deleted":"0","num_feature":"2","num_nodes":"33","size_leaf_vector":"1"}},{"base_weights":[-1.2457029E-2,-3.0663118E0,1.8023949E1,1.5251448E1,7.431046E1,-9.480671E0,1.8958464E1,8.7291133E-1,4.5282616E1,1.7792202E1,-5.0676952E1,3.1240234E1,1.546727E1,3.155864E-1,8.014282E-1,6.2851496E-2,2.4826147E1,-9.224377E-1,-3.544831E1,4.2399406E-1,2.9585817E1,-1.1984481E1,2.0395565E1,2.9511374E-1,1.8752278E-1,-4.2142722E-1,2.4547806E-2,1.5356393E-1,2.9944894E-1,-1.02870755E-1,-4.3369365E-1,1.694945E-1,3.2609192E-1],"categories":[],"categories_nodes":[],"categories_segments":[],"categories_sizes":[],"default_left":[0,0,0,0,0,0,0,0,0,0,0,0,0,0,0,0,0,0,0,0,0,0,0,0,0,0,0,0,0,0,0,0,0],"id":23,"left_children":[1,-1,3,5,7,9,11,-1,13,15,17,19,21,-1,-1,-1,23,-1,25,-1,27,29,31,-1,-1,-1,-1,-1,-1,-1,-1,-1,-1],"loss_changes":[7.2668105E6,0E0,1.9253022E5,1.08731625E5,1.7901688E4,1.750505E5,4.368122E4,0E0,7.039215E3,7.4523184E3,3.59765E4,2.9364375E3,1.09017875E5,0E0,0E0,0E0,1.097125E3,0E0,1.2029184E4,0E0,5.6715625E2,6.106416E3,2.8152375E4,0E0,0E0,0E0,0E0,0E0,0E0,0E0,0E0,0E0,0E0],"parents":[2147483647,0,0,2,2,3,3,4,4,5,5,6,6,8,8,9,9,10,10,11,11,12,12,16,16,18,18,20,20,21,21,22,22],"right_children":[2,-1,4,6,8,10,12,-1,14,16,18,20,22,-1,-1,-1,24,-1,26,-1,28,30,32,-1,-1,-1,-1,-1,-1,-1,-1,-1,-1],"split_conditions":[1.123E2,-3.0663118E0,1.224E2,1.148E2,1.234E2,1.133E2,1.16E2,8.7291133E-1,4.88E1,1.126E2,1.14E2,1.152E2,1.167E2,3.155864E-1,8.014282E-1,6.2851496E-2,4.88E1,-9.224377E-1,4.88E1,4.2399406E-1,1.153E2,1.165E2,1.188E2,2.9511374E-1,1.8752278E-1,-4.2142722E-1,2.4547806E-2,1.5356393E-1,2.9944894E-1,-1.02870755E-1,-4.3369365E-1,1.694945E-1,3.2609192E-1],"split_indices":[1,0,1,1,1,1,1,0,0,1,1,1,1,0,0,0,0,0,0,0,1,1,1,0,0,0,0,0,0,0,0,0,0],"split_type":[0,0,0,0,0,0,0,0,0,0,0,0,0,0,0,0,0,0,0,0,0,0,0,0,0,0,0,0,0,0,0,0,0],"sum_hessian":[1.312E3,7.2E1,1.24E3,1.183E3,5.7E1,1.54E2,1.029E3,3.8E1,1.9E1,9.3E1,6.1E1,2.26E2,8.03E2,1.5E1,4E0,3.6E1,5.7E1,1.5E1,4.6E1,2.6E1,2E2,1.22E2,6.81E2,3E1,2.7E1,3.9E1,7E0,6E0,1.94E2,1.17E2,5E0,5.33E2,1.48E2],"tree_param":{"num_deleted":"0","num_feature":"2","num_nodes":"33","size_leaf_vector":"1"}},{"base_weights":[-1.3109636E-2,-3.036069E0,1.784536E1,1.5098983E1,7.360165E1,-9.39085E0,1.8769688E1,8.6440593E-1,4.4885616E1,1.7620087E1,-5.0191452E1,3.0931702E1,1.5312538E1,3.1262752E-1,7.950166E-1,6.2239822E-2,2.4586222E1,-9.137899E-1,-3.5102253E1,4.1991097E-1,2.9292223E1,-1.1869022E1,2.0192333E1,2.922579E-1,1.8571475E-1,-4.173181E-1,2.4333114E-2,1.5224767E-1,2.964699E-1,-1.0185103E-1,-4.3007934E-1,1.6186765E-1,3.0479446E-1],"categories":[],"categories_nodes":[],"categories_segments":[],"categories_sizes":[],"default_left":[0,0,0,0,0,0,0,0,0,0,0,0,0,0,0,0,0,0,0,0,0,0,0,0,0,0,0,0,0,0,0,0,0],"id":24,"left_children":[1,-1,3,5,7,9,11,-1,13,15,17,19,21,-1,-1,-1,23,-1,25,-1,27,29,31,-1,-1,-1,-1,-1,-1,-1,-1,-1,-1],"loss_changes":[7.1241375E6,0E0,1.8892031E5,1.06611875E5,1.7503688E4,1.7170405E5,4.2833625E4,0E0,6.945953E3,7.309334E3,3.5324594E4,2.8858594E3,1.0688258E5,0E0,0E0,0E0,1.0757734E3,0E0,1.1797223E4,0E0,5.517656E2,6.0115156E3,2.7608938E4,0E0,0E0,0E0,0E0,0E0,0E0,0E0,0E0,0E0,0E0],"parents":[2147483647,0,0,2,2,3,3,4,4,5,5,6,6,8,8,9,9,10,10,11,11,12,12,16,16,18,18,20,20,21,21,22,22],"right_children":[2,-1,4,6,8,10,12,-1,14,16,18,20,22,-1,-1,-1,24,-1,26,-1,28,30,32,-1,-1,-1,-1,-1,-1,-1,-1,-1,-1],"split_conditions":[1.123E2,-3.036069E0,1.224E2,1.148E2,1.234E2,1.133E2,1.16E2,8.6440593E-1,4.88E1,1.126E2,1.14E2,1.152E2,1.167E2,3.1262752E-1,7.950166E-1,6.2239822E-2,4.88E1,-9.137899E-1,4.88E1,4.1991097E-1,1.153E2,1.165E2,1.187E2,2.922579E-1,1.8571475E-1,-4.173181E-1,2.4333114E-2,1.5224767E-1,2.964699E-1,-1.0185103E-1,-4.3007934E-1,1.6186765E-1,3.0479446E-1],"split_indices":[1,0,1,1,1,1,1,0,0,1,1,1,1,0,0,0,0,0,0,0,1,1,1,0,0,0,0,0,0,0,0,0,0],"split_type":[0,0,0,0,0,0,0,0,0,0,0,0,0,0,0,0,0,0,0,0,0,0,0,0,0,0,0,0,0,0,0,0,0],"sum_hessian":[1.312E3,7.2E1,1.24E3,1.183E3,5.7E1,1.54E2,1.029E3,3.8E1,1.9E1,9.3E1,6.1E1,2.26E2,8.03E2,1.5E1,4E0,3.6E1,5.7E1,1.5E1,4.6E1,2.6E1,2E2,1.22E2,6.81E2,3E1,2.7E1,3.9E1,7E0,6E0,1.94E2,1.17E2,5E0,4.92E2,1.89E2],"tree_param":{"num_deleted":"0","num_feature":"2","num_nodes":"33","size_leaf_vector":"1"}},{"base_weights":[-1.3757361E-2,-3.0061243E0,1.7668528E1,1.4948027E1,7.289965E1,-9.301892E0,1.8582773E1,8.559838E-1,4.449214E1,1.7449629E1,-4.971062E1,3.062623E1,1.5159332E1,3.0969667E-1,7.8865623E-1,6.163409E-2,2.4348604E1,-9.052229E-1,-3.4759613E1,4.1586727E-1,2.9001554E1,-1.17546425E1,1.999109E1,2.894298E-1,1.839238E-1,-4.1324943E-1,2.4120025E-2,1.509429E-1,2.9352063E-1,5.9612244E-2,-1.4459457E-1,1.6607735E-1,3.1982505E-1],"categories":[],"categories_nodes":[],"categories_segments":[],"categories_sizes":[],"default_left":[0,0,0,0,0,0,0,0,0,0,0,0,0,0,0,0,0,0,0,0,0,0,0,0,0,0,0,0,0,0,0,0,0],"id":25,"left_children":[1,-1,3,5,7,9,11,-1,13,15,17,19,21,-1,-1,-1,23,-1,25,-1,27,29,31,-1,-1,-1,-1,-1,-1,-1,-1,-1,-1],"loss_changes":[6.984263E6,0E0,1.8537834E5,1.04533375E5,1.7114438E4,1.6842166E5,4.2002688E4,0E0,6.8538477E3,7.169084E3,3.4684375E4,2.8361719E3,1.04788625E5,0E0,0E0,0E0,1.0548477E3,0E0,1.1569746E4,0E0,5.3675E2,5.980125E3,2.7138406E4,0E0,0E0,0E0,0E0,0E0,0E0,0E0,0E0,0E0,0E0],"parents":[2147483647,0,0,2,2,3,3,4,4,5,5,6,6,8,8,9,9,10,10,11,11,12,12,16,16,18,18,20,20,21,21,22,22],"right_children":[2,-1,4,6,8,10,12,-1,14,16,18,20,22,-1,-1,-1,24,-1,26,-1,28,30,32,-1,-1,-1,-1,-1,-1,-1,-1,-1,-1],"split_conditions":[1.123E2,-3.0061243E0,1.224E2,1.148E2,1.234E2,1.133E2,1.16E2,8.559838E-1,4.88E1,1.126E2,1.14E2,1.152E2,1.167E2,3.0969667E-1,7.8865623E-1,6.163409E-2,4.88E1,-9.052229E-1,4.88E1,4.1586727E-1,1.153E2,1.1627E2,1.188E2,2.894298E-1,1.839238E-1,-4.1324943E-1,2.4120025E-2,1.509429E-1,2.9352063E-1,5.9612244E-2,-1.4459457E-1,1.6607735E-1,3.1982505E-1],"split_indices":[1,0,1,1,1,1,1,0,0,1,1,1,1,0,0,0,0,0,0,0,1,1,1,0,0,0,0,0,0,0,0,0,0],"split_type":[0,0,0,0,0,0,0,0,0,0,0,0,0,0,0,0,0,0,0,0,0,0,0,0,0,0,0,0,0,0,0,0,0],"sum_hessian":[1.312E3,7.2E1,1.24E3,1.183E3,5.7E1,1.54E2,1.029E3,3.8E1,1.9E1,9.3E1,6.1E1,2.26E2,8.03E2,1.5E1,4E0,3.6E1,5.7E1,1.5E1,4.6E1,2.6E1,2E2,1.22E2,6.81E2,3E1,2.7E1,3.9E1,7E0,6E0,1.94E2,1.6E1,1.06E2,5.33E2,1.48E2],"tree_param":{"num_deleted":"0","num_feature":"2","num_nodes":"33","size_leaf_vector":"1"}},{"base_weights":[-1.4038272E-2,-2.9764748E0,1.7493824E1,1.4798971E1,7.220437E1,-9.213766E0,1.839817E1,8.476436E-1,4.4102146E1,1.7280828E1,-4.9234383E1,3.0323757E1,1.5008238E1,3.0679333E-1,7.8234714E-1,6.1034296E-2,2.4113293E1,-8.9673656E-1,-3.4420277E1,4.1186237E-1,2.8713753E1,-1.1637791E1,1.9791893E1,2.866289E-1,1.8215047E-1,-4.0922007E-1,2.3909071E-2,1.4964913E-1,2.906005E-1,-9.968422E-2,-4.2529064E-1,1.5859489E-1,2.9891276E-1],"categories":[],"categories_nodes":[],"categories_segments":[],"categories_sizes":[],"default_left":[0,0,0,0,0,0,0,0,0,0,0,0,0,0,0,0,0,0,0,0,0,0,0,0,0,0,0,0,0,0,0,0,0],"id":26,"left_children":[1,-1,3,5,7,9,11,-1,13,15,17,19,21,-1,-1,-1,23,-1,25,-1,27,29,31,-1,-1,-1,-1,-1,-1,-1,-1,-1,-1],"loss_changes":[6.847152E6,0E0,1.819006E5,1.0249867E5,1.6733625E4,1.6520195E5,4.1184656E4,0E0,6.762914E3,7.0315293E3,3.405586E4,2.7872969E3,1.0271253E5,0E0,0E0,0E0,1.0343125E3,0E0,1.1346652E4,0E0,5.22125E2,5.9190273E3,2.6611469E4,0E0,0E0,0E0,0E0,0E0,0E0,0E0,0E0,0E0,0E0],"parents":[2147483647,0,0,2,2,3,3,4,4,5,5,6,6,8,8,9,9,10,10,11,11,12,12,16,16,18,18,20,20,21,21,22,22],"right_children":[2,-1,4,6,8,10,12,-1,14,16,18,20,22,-1,-1,-1,24,-1,26,-1,28,30,32,-1,-1,-1,-1,-1,-1,-1,-1,-1,-1],"split_conditions":[1.123E2,-2.9764748E0,1.224E2,1.148E2,1.234E2,1.133E2,1.16E2,8.476436E-1,4.88E1,1.126E2,1.14E2,1.152E2,1.167E2,3.0679333E-1,7.8234714E-1,6.1034296E-2,4.88E1,-8.9673656E-1,4.88E1,4.1186237E-1,1.153E2,1.165E2,1.187E2,2.866289E-1,1.8215047E-1,-4.0922007E-1,2.3909071E-2,1.4964913E-1,2.906005E-1,-9.968422E-2,-4.2529064E-1,1.5859489E-1,2.9891276E-1],"split_indices":[1,0,1,1,1,1,1,0,0,1,1,1,1,0,0,0,0,0,0,0,1,1,1,0,0,0,0,0,0,0,0,0,0],"split_type":[0,0,0,0,0,0,0,0,0,0,0,0,0,0,0,0,0,0,0,0,0,0,0,0,0,0,0,0,0,0,0,0,0],"sum_hessian":[1.312E3,7.2E1,1.24E3,1.183E3,5.7E1,1.54E2,1.029E3,3.8E1,1.9E1,9.3E1,6.1E1,2.26E2,8.03E2,1.5E1,4E0,3.6E1,5.7E1,1.5E1,4.6E1,2.6E1,2E2,1.22E2,6.81E2,3E1,2.7E1,3.9E1,7E0,6E0,1.94E2,1.17E2,5E0,4.92E2,1.89E2],"tree_param":{"num_deleted":"0","num_feature":"2","num_nodes":"33","size_leaf_vector":"1"}},{"base_weights":[-1.4649832E-2,-2.9471176E0,1.7320486E1,1.4651025E1,7.15157E1,-9.126473E0,1.8214968E1,8.3938444E-1,4.3715557E1,1.7113665E1,-4.8762707E1,3.0024282E1,1.485809E1,3.0391684E-1,7.760884E-1,6.0440443E-2,2.3880255E1,-8.8832974E-1,-3.408426E1,4.0789625E-1,2.8428818E1,-1.1525694E1,1.959467E1,2.8385514E-1,1.8039425E-1,-4.0523E-1,2.3699721E-2,1.4836635E-1,2.8770953E-1,5.9989084E-2,-1.420226E-1,1.6272923E-1,3.1367943E-1],"categories":[],"categories_nodes":[],"categories_segments":[],"categories_sizes":[],"default_left":[0,0,0,0,0,0,0,0,0,0,0,0,0,0,0,0,0,0,0,0,0,0,0,0,0,0,0,0,0,0,0,0,0],"id":27,"left_children":[1,-1,3,5,7,9,11,-1,13,15,17,19,21,-1,-1,-1,23,-1,25,-1,27,29,31,-1,-1,-1,-1,-1,-1,-1,-1,-1,-1],"loss_changes":[6.712716E6,0E0,1.7849022E5,1.0050034E5,1.6361156E4,1.6204383E5,4.0385594E4,0E0,6.673133E3,6.8966074E3,3.3438703E4,2.7392812E3,1.0070083E5,0E0,0E0,0E0,1.0141758E3,0E0,1.1127855E4,0E0,5.0785938E2,5.8546045E3,2.6161078E4,0E0,0E0,0E0,0E0,0E0,0E0,0E0,0E0,0E0,0E0],"parents":[2147483647,0,0,2,2,3,3,4,4,5,5,6,6,8,8,9,9,10,10,11,11,12,12,16,16,18,18,20,20,21,21,22,22],"right_children":[2,-1,4,6,8,10,12,-1,14,16,18,20,22,-1,-1,-1,24,-1,26,-1,28,30,32,-1,-1,-1,-1,-1,-1,-1,-1,-1,-1],"split_conditions":[1.123E2,-2.9471176E0,1.224E2,1.148E2,1.234E2,1.133E2,1.16E2,8.3938444E-1,4.88E1,1.126E2,1.14E2,1.152E2,1.167E2,3.0391684E-1,7.760884E-1,6.0440443E-2,4.88E1,-8.8832974E-1,4.88E1,4.0789625E-1,1.153E2,1.1627E2,1.188E2,2.8385514E-1,1.8039425E-1,-4.0523E-1,2.3699721E-2,1.4836635E-1,2.8770953E-1,5.9989084E-2,-1.420226E-1,1.6272923E-1,3.1367943E-1],"split_indices":[1,0,1,1,1,1,1,0,0,1,1,1,1,0,0,0,0,0,0,0,1,1,1,0,0,0,0,0,0,0,0,0,0],"split_type":[0,0,0,0,0,0,0,0,0,0,0,0,0,0,0,0,0,0,0,0,0,0,0,0,0,0,0,0,0,0,0,0,0],"sum_hessian":[1.312E3,7.2E1,1.24E3,1.183E3,5.7E1,1.54E2,1.029E3,3.8E1,1.9E1,9.3E1,6.1E1,2.26E2,8.03E2,1.5E1,4E0,3.6E1,5.7E1,1.5E1,4.6E1,2.6E1,2E2,1.22E2,6.81E2,3E1,2.7E1,3.9E1,7E0,6E0,1.94E2,1.6E1,1.06E2,5.33E2,1.48E2],"tree_param":{"num_deleted":"0","num_feature":"2","num_nodes":"33","size_leaf_vector":"1"}},{"base_weights":[-1.4904199E-2,-2.9180498E0,1.7149231E1,1.4504935E1,7.0833664E1,-9.040027E0,1.8034027E1,8.312061E-1,4.3332424E1,1.6948101E1,-4.8295574E1,2.9727749E1,1.4710011E1,3.0106783E-1,7.698799E-1,5.9852522E-2,2.3649435E1,-8.800019E-1,-3.3751545E1,4.0396833E-1,2.8146688E1,-1.14111E1,1.9399433E1,2.8110796E-1,1.7865448E-1,-4.0127912E-1,2.3492508E-2,1.4709455E-1,2.8484708E-1,-9.756165E-2,-4.2056292E-1,1.5538852E-1,2.9314524E-1],"categories":[],"categories_nodes":[],"categories_segments":[],"categories_sizes":[],"default_left":[0,0,0,0,0,0,0,0,0,0,0,0,0,0,0,0,0,0,0,0,0,0,0,0,0,0,0,0,0,0,0,0,0],"id":28,"left_children":[1,-1,3,5,7,9,11,-1,13,15,17,19,21,-1,-1,-1,23,-1,25,-1,27,29,31,-1,-1,-1,-1,-1,-1,-1,-1,-1,-1],"loss_changes":[6.5809345E6,0E0,1.7514181E5,9.854433E4,1.599675E4,1.5894614E5,3.959897E4,0E0,6.5844688E3,6.7642246E3,3.2832703E4,2.6920938E3,9.87057E4,0E0,0E0,0E0,9.9444727E2,0E0,1.0913301E4,0E0,4.9396875E2,5.8277324E3,2.5650078E4,0E0,0E0,0E0,0E0,0E0,0E0,0E0,0E0,0E0,0E0],"parents":[2147483647,0,0,2,2,3,3,4,4,5,5,6,6,8,8,9,9,10,10,11,11,12,12,16,16,18,18,20,20,21,21,22,22],"right_children":[2,-1,4,6,8,10,12,-1,14,16,18,20,22,-1,-1,-1,24,-1,26,-1,28,30,32,-1,-1,-1,-1,-1,-1,-1,-1,-1,-1],"split_conditions":[1.123E2,-2.9180498E0,1.224E2,1.148E2,1.234E2,1.133E2,1.16E2,8.312061E-1,4.88E1,1.126E2,1.14E2,1.152E2,1.167E2,3.0106783E-1,7.698799E-1,5.9852522E-2,4.88E1,-8.800019E-1,4.88E1,4.0396833E-1,1.153E2,1.165E2,1.187E2,2.8110796E-1,1.7865448E-1,-4.0127912E-1,2.3492508E-2,1.4709455E-1,2.8484708E-1,-9.756165E-2,-4.2056292E-1,1.5538852E-1,2.9314524E-1],"split_indices":[1,0,1,1,1,1,1,0,0,1,1,1,1,0,0,0,0,0,0,0,1,1,1,0,0,0,0,0,0,0,0,0,0],"split_type":[0,0,0,0,0,0,0,0,0,0,0,0,0,0,0,0,0,0,0,0,0,0,0,0,0,0,0,0,0,0,0,0,0],"sum_hessian":[1.312E3,7.2E1,1.24E3,1.183E3,5.7E1,1.54E2,1.029E3,3.8E1,1.9E1,9.3E1,6.1E1,2.26E2,8.03E2,1.5E1,4E0,3.6E1,5.7E1,1.5E1,4.6E1,2.6E1,2E2,1.22E2,6.81E2,3E1,2.7E1,3.9E1,7E0,6E0,1.94E2,1.17E2,5E0,4.92E2,1.89E2],"tree_param":{"num_deleted":"0","num_feature":"2","num_nodes":"33","size_leaf_vector":"1"}},{"base_weights":[-1.5515109E-2,-2.8892694E0,1.6979288E1,1.4359901E1,7.0158134E1,-8.954391E0,1.7854422E1,8.231075E-1,4.295263E1,1.6784136E1,-4.783289E1,2.9434149E1,1.4562814E1,2.9824516E-1,7.637207E-1,5.926995E-2,2.342086E1,-8.7175184E-1,-3.3422047E1,4.000781E-1,2.7867367E1,-1.1301227E1,1.920609E1,2.7838737E-1,1.7693178E-1,-3.973664E-1,2.3286896E-2,1.4583373E-1,2.8201318E-1,-9.659458E-2,-4.17058E-1,1.5944827E-1,3.0765206E-1],"categories":[],"categories_nodes":[],"categories_segments":[],"categories_sizes":[],"default_left":[0,0,0,0,0,0,0,0,0,0,0,0,0,0,0,0,0,0,0,0,0,0,0,0,0,0,0,0,0,0,0,0,0],"id":29,"left_children":[1,-1,3,5,7,9,11,-1,13,15,17,19,21,-1,-1,-1,23,-1,25,-1,27,29,31,-1,-1,-1,-1,-1,-1,-1,-1,-1,-1],"loss_changes":[6.451726E6,0E0,1.7185881E5,9.6623E4,1.5640375E4,1.5590748E5,3.883075E4,0E0,6.496922E3,6.6344336E3,3.2237672E4,2.6456875E3,9.67725E4,0E0,0E0,0E0,9.750879E2,0E0,1.0702855E4,0E0,4.8042188E2,5.7369688E3,2.5219016E4,0E0,0E0,0E0,0E0,0E0,0E0,0E0,0E0,0E0,0E0],"parents":[2147483647,0,0,2,2,3,3,4,4,5,5,6,6,8,8,9,9,10,10,11,11,12,12,16,16,18,18,20,20,21,21,22,22],"right_children":[2,-1,4,6,8,10,12,-1,14,16,18,20,22,-1,-1,-1,24,-1,26,-1,28,30,32,-1,-1,-1,-1,-1,-1,-1,-1,-1,-1],"split_conditions":[1.123E2,-2.8892694E0,1.224E2,1.148E2,1.234E2,1.133E2,1.16E2,8.231075E-1,4.88E1,1.126E2,1.14E2,1.152E2,1.167E2,2.9824516E-1,7.637207E-1,5.926995E-2,4.88E1,-8.7175184E-1,4.88E1,4.000781E-1,1.153E2,1.165E2,1.188E2,2.7838737E-1,1.7693178E-1,-3.973664E-1,2.3286896E-2,1.4583373E-1,2.8201318E-1,-9.659458E-2,-4.17058E-1,1.5944827E-1,3.0765206E-1],"split_indices":[1,0,1,1,1,1,1,0,0,1,1,1,1,0,0,0,0,0,0,0,1,1,1,0,0,0,0,0,0,0,0,0,0],"split_type":[0,0,0,0,0,0,0,0,0,0,0,0,0,0,0,0,0,0,0,0,0,0,0,0,0,0,0,0,0,0,0,0,0],"sum_hessian":[1.312E3,7.2E1,1.24E3,1.183E3,5.7E1,1.54E2,1.029E3,3.8E1,1.9E1,9.3E1,6.1E1,2.26E2,8.03E2,1.5E1,4E0,3.6E1,5.7E1,1.5E1,4.6E1,2.6E1,2E2,1.22E2,6.81E2,3E1,2.7E1,3.9E1,7E0,6E0,1.94E2,1.17E2,5E0,5.33E2,1.48E2],"tree_param":{"num_deleted":"0","num_feature":"2","num_nodes":"33","size_leaf_vector":"1"}},{"base_weights":[-1.6082136E-2,-2.8607724E0,1.6811058E1,1.421635E1,6.948905E1,-8.86957E0,1.7676641E1,8.150873E-1,4.257622E1,1.6621769E1,-4.7374672E1,2.9143427E1,1.4417143E1,2.9544938E-1,7.5761086E-1,5.8693316E-2,2.31945E1,-8.635791E-1,-3.3095814E1,3.962254E-1,2.7590794E1,-1.1192368E1,1.9014727E1,2.7569336E-1,1.7522556E-1,-3.9349234E-1,2.3082886E-2,1.4458391E-1,2.792072E-1,6.125172E-2,-1.383915E-1,1.5224671E-1,2.8748846E-1],"categories":[],"categories_nodes":[],"categories_segments":[],"categories_sizes":[],"default_left":[0,0,0,0,0,0,0,0,0,0,0,0,0,0,0,0,0,0,0,0,0,0,0,0,0,0,0,0,0,0,0,0,0],"id":30,"left_children":[1,-1,3,5,7,9,11,-1,13,15,17,19,21,-1,-1,-1,23,-1,25,-1,27,29,31,-1,-1,-1,-1,-1,-1,-1,-1,-1,-1],"loss_changes":[6.3250545E6,0E0,1.68637E5,9.473947E4,1.5291719E4,1.5292719E5,3.8077094E4,0E0,6.4104727E3,6.5071133E3,3.1653344E4,2.600125E3,9.48773E4,0E0,0E0,0E0,9.561172E2,0E0,1.0496488E4,0E0,4.671875E2,5.7225684E3,2.4723234E4,0E0,0E0,0E0,0E0,0E0,0E0,0E0,0E0,0E0,0E0],"parents":[2147483647,0,0,2,2,3,3,4,4,5,5,6,6,8,8,9,9,10,10,11,11,12,12,16,16,18,18,20,20,21,21,22,22],"right_children":[2,-1,4,6,8,10,12,-1,14,16,18,20,22,-1,-1,-1,24,-1,26,-1,28,30,32,-1,-1,-1,-1,-1,-1,-1,-1,-1,-1],"split_conditions":[1.123E2,-2.8607724E0,1.224E2,1.148E2,1.234E2,1.133E2,1.16E2,8.150873E-1,4.88E1,1.126E2,1.14E2,1.152E2,1.167E2,2.9544938E-1,7.5761086E-1,5.8693316E-2,4.88E1,-8.635791E-1,4.88E1,3.962254E-1,1.153E2,1.1627E2,1.187E2,2.7569336E-1,1.7522556E-1,-3.9349234E-1,2.3082886E-2,1.4458391E-1,2.792072E-1,6.125172E-2,-1.383915E-1,1.5224671E-1,2.8748846E-1],"split_indices":[1,0,1,1,1,1,1,0,0,1,1,1,1,0,0,0,0,0,0,0,1,1,1,0,0,0,0,0,0,0,0,0,0],"split_type":[0,0,0,0,0,0,0,0,0,0,0,0,0,0,0,0,0,0,0,0,0,0,0,0,0,0,0,0,0,0,0,0,0],"sum_hessian":[1.312E3,7.2E1,1.24E3,1.183E3,5.7E1,1.54E2,1.029E3,3.8E1,1.9E1,9.3E1,6.1E1,2.26E2,8.03E2,1.5E1,4E0,3.6E1,5.7E1,1.5E1,4.6E1,2.6E1,2E2,1.22E2,6.81E2,3E1,2.7E1,3.9E1,7E0,6E0,1.94E2,1.6E1,1.06E2,4.92E2,1.89E2],"tree_param":{"num_deleted":"0","num_feature":"2","num_nodes":"33","size_leaf_vector":"1"}},{"base_weights":[-1.6323859E-2,-2.8325565E0,1.6644827E1,1.4074577E1,6.882638E1,-8.785553E0,1.750103E1,8.0714566E-1,4.220309E1,1.6460962E1,-4.6920826E1,2.885558E1,1.42734375E1,2.926793E-1,7.5154984E-1,5.8122028E-2,2.2970325E1,-8.5548294E-1,-3.277273E1,3.9240974E-1,2.7316967E1,-1.1081096E1,1.8825247E1,2.7302533E-1,1.7353582E-1,-3.896558E-1,2.288101E-2,1.4334455E-1,2.7642918E-1,-9.453535E-2,-4.1242948E-1,1.562338E-1,3.0174044E-1],"categories":[],"categories_nodes":[],"categories_segments":[],"categories_sizes":[],"default_left":[0,0,0,0,0,0,0,0,0,0,0,0,0,0,0,0,0,0,0,0,0,0,0,0,0,0,0,0,0,0,0,0,0],"id":31,"left_children":[1,-1,3,5,7,9,11,-1,13,15,17,19,21,-1,-1,-1,23,-1,25,-1,27,29,31,-1,-1,-1,-1,-1,-1,-1,-1,-1,-1],"loss_changes":[6.200884E6,0E0,1.6547372E5,9.289547E4,1.4950781E4,1.5000367E5,3.7335406E4,0E0,6.325125E3,6.382258E3,3.1079656E4,2.5553125E3,9.299742E4,0E0,0E0,0E0,9.3750977E2,0E0,1.0294098E4,0E0,4.5432812E2,5.648211E3,2.4310656E4,0E0,0E0,0E0,0E0,0E0,0E0,0E0,0E0,0E0,0E0],"parents":[2147483647,0,0,2,2,3,3,4,4,5,5,6,6,8,8,9,9,10,10,11,11,12,12,16,16,18,18,20,20,21,21,22,22],"right_children":[2,-1,4,6,8,10,12,-1,14,16,18,20,22,-1,-1,-1,24,-1,26,-1,28,30,32,-1,-1,-1,-1,-1,-1,-1,-1,-1,-1],"split_conditions":[1.123E2,-2.8325565E0,1.224E2,1.148E2,1.234E2,1.133E2,1.16E2,8.0714566E-1,4.88E1,1.126E2,1.14E2,1.152E2,1.167E2,2.926793E-1,7.5154984E-1,5.8122028E-2,4.88E1,-8.5548294E-1,4.88E1,3.9240974E-1,1.153E2,1.165E2,1.188E2,2.7302533E-1,1.7353582E-1,-3.896558E-1,2.288101E-2,1.4334455E-1,2.7642918E-1,-9.453535E-2,-4.1242948E-1,1.562338E-1,3.0174044E-1],"split_indices":[1,0,1,1,1,1,1,0,0,1,1,1,1,0,0,0,0,0,0,0,1,1,1,0,0,0,0,0,0,0,0,0,0],"split_type":[0,0,0,0,0,0,0,0,0,0,0,0,0,0,0,0,0,0,0,0,0,0,0,0,0,0,0,0,0,0,0,0,0],"sum_hessian":[1.312E3,7.2E1,1.24E3,1.183E3,5.7E1,1.54E2,1.029E3,3.8E1,1.9E1,9.3E1,6.1E1,2.26E2,8.03E2,1.5E1,4E0,3.6E1,5.7E1,1.5E1,4.6E1,2.6E1,2E2,1.22E2,6.81E2,3E1,2.7E1,3.9E1,7E0,6E0,1.94E2,1.17E2,5E0,5.33E2,1.48E2],"tree_param":{"num_deleted":"0","num_feature":"2","num_nodes":"33","size_leaf_vector":"1"}},{"base_weights":[-1.687801E-2,-2.8046188E0,1.64799E1,1.3933862E1,6.817005E1,-8.702322E0,1.732675E1,7.9928136E-1,4.183329E1,1.6301735E1,-4.647134E1,2.8570604E1,1.4130629E1,2.899356E-1,7.455376E-1,5.755668E-2,2.2748335E1,-8.474629E-1,-3.2452816E1,3.8863114E-1,2.7045885E1,-1.09744E1,1.863765E1,2.703833E-1,1.7186257E-1,-3.8585675E-1,2.2680739E-2,1.4211565E-1,2.7367905E-1,6.1564796E-2,-1.3593563E-1,1.5467423E-1,2.9874313E-1],"categories":[],"categories_nodes":[],"categories_segments":[],"categories_sizes":[],"default_left":[0,0,0,0,0,0,0,0,0,0,0,0,0,0,0,0,0,0,0,0,0,0,0,0,0,0,0,0,0,0,0,0,0],"id":32,"left_children":[1,-1,3,5,7,9,11,-1,13,15,17,19,21,-1,-1,-1,23,-1,25,-1,27,29,31,-1,-1,-1,-1,-1,-1,-1,-1,-1,-1],"loss_changes":[6.079136E6,0E0,1.6237203E5,9.108444E4,1.4617219E4,1.4713625E5,3.6611094E4,0E0,6.2408633E3,6.2597793E3,3.051636E4,2.5112656E3,9.1176234E4,0E0,0E0,0E0,9.192637E2,0E0,1.0095613E4,0E0,4.4176562E2,5.6025225E3,2.3832672E4,0E0,0E0,0E0,0E0,0E0,0E0,0E0,0E0,0E0,0E0],"parents":[2147483647,0,0,2,2,3,3,4,4,5,5,6,6,8,8,9,9,10,10,11,11,12,12,16,16,18,18,20,20,21,21,22,22],"right_children":[2,-1,4,6,8,10,12,-1,14,16,18,20,22,-1,-1,-1,24,-1,26,-1,28,30,32,-1,-1,-1,-1,-1,-1,-1,-1,-1,-1],"split_conditions":[1.123E2,-2.8046188E0,1.224E2,1.148E2,1.234E2,1.133E2,1.16E2,7.9928136E-1,4.88E1,1.126E2,1.14E2,1.152E2,1.167E2,2.899356E-1,7.455376E-1,5.755668E-2,4.88E1,-8.474629E-1,4.88E1,3.8863114E-1,1.153E2,1.1627E2,1.188E2,2.703833E-1,1.7186257E-1,-3.8585675E-1,2.2680739E-2,1.4211565E-1,2.7367905E-1,6.1564796E-2,-1.3593563E-1,1.5467423E-1,2.9874313E-1],"split_indices":[1,0,1,1,1,1,1,0,0,1,1,1,1,0,0,0,0,0,0,0,1,1,1,0,0,0,0,0,0,0,0,0,0],"split_type":[0,0,0,0,0,0,0,0,0,0,0,0,0,0,0,0,0,0,0,0,0,0,0,0,0,0,0,0,0,0,0,0,0],"sum_hessian":[1.312E3,7.2E1,1.24E3,1.183E3,5.7E1,1.54E2,1.029E3,3.8E1,1.9E1,9.3E1,6.1E1,2.26E2,8.03E2,1.5E1,4E0,3.6E1,5.7E1,1.5E1,4.6E1,2.6E1,2E2,1.22E2,6.81E2,3E1,2.7E1,3.9E1,7E0,6E0,1.94E2,1.6E1,1.06E2,5.33E2,1.48E2],"tree_param":{"num_deleted":"0","num_feature":"2","num_nodes":"33","size_leaf_vector":"1"}},{"base_weights":[-1.7085753E-2,-2.7769568E0,1.6316961E1,1.3794924E1,6.752001E1,-8.619885E0,1.7154633E1,7.914937E-1,4.1466743E1,1.6144032E1,-4.6026146E1,2.8288443E1,1.3989796E1,2.8721762E-1,7.395732E-1,5.6996673E-2,2.252847E1,-8.3951783E-1,-3.2136013E1,3.8488895E-1,2.6777493E1,-1.0865272E1,1.845194E1,2.6776665E-1,1.702052E-1,-3.8209456E-1,2.2482071E-2,1.4089774E-1,2.7095628E-1,-9.2517994E-2,-4.0785998E-1,1.4762476E-1,2.7928016E-1],"categories":[],"categories_nodes":[],"categories_segments":[],"categories_sizes":[],"default_left":[0,0,0,0,0,0,0,0,0,0,0,0,0,0,0,0,0,0,0,0,0,0,0,0,0,0,0,0,0,0,0,0,0],"id":33,"left_children":[1,-1,3,5,7,9,11,-1,13,15,17,19,21,-1,-1,-1,23,-1,25,-1,27,29,31,-1,-1,-1,-1,-1,-1,-1,-1,-1,-1],"loss_changes":[5.959794E6,0E0,1.5932644E5,8.931164E4,1.42909375E4,1.4432352E5,3.5898062E4,0E0,6.1576484E3,6.1396465E3,2.996325E4,2.4679688E3,8.936966E4,0E0,0E0,0E0,9.013789E2,0E0,9.9009375E3,0E0,4.295625E2,5.5606357E3,2.3431547E4,0E0,0E0,0E0,0E0,0E0,0E0,0E0,0E0,0E0,0E0],"parents":[2147483647,0,0,2,2,3,3,4,4,5,5,6,6,8,8,9,9,10,10,11,11,12,12,16,16,18,18,20,20,21,21,22,22],"right_children":[2,-1,4,6,8,10,12,-1,14,16,18,20,22,-1,-1,-1,24,-1,26,-1,28,30,32,-1,-1,-1,-1,-1,-1,-1,-1,-1,-1],"split_conditions":[1.123E2,-2.7769568E0,1.224E2,1.148E2,1.234E2,1.133E2,1.16E2,7.914937E-1,4.88E1,1.126E2,1.14E2,1.152E2,1.167E2,2.8721762E-1,7.395732E-1,5.6996673E-2,4.88E1,-8.3951783E-1,4.88E1,3.8488895E-1,1.153E2,1.165E2,1.187E2,2.6776665E-1,1.702052E-1,-3.8209456E-1,2.2482071E-2,1.4089774E-1,2.7095628E-1,-9.2517994E-2,-4.0785998E-1,1.4762476E-1,2.7928016E-1],"split_indices":[1,0,1,1,1,1,1,0,0,1,1,1,1,0,0,0,0,0,0,0,1,1,1,0,0,0,0,0,0,0,0,0,0],"split_type":[0,0,0,0,0,0,0,0,0,0,0,0,0,0,0,0,0,0,0,0,0,0,0,0,0,0,0,0,0,0,0,0,0],"sum_hessian":[1.312E3,7.2E1,1.24E3,1.183E3,5.7E1,1.54E2,1.029E3,3.8E1,1.9E1,9.3E1,6.1E1,2.26E2,8.03E2,1.5E1,4E0,3.6E1,5.7E1,1.5E1,4.6E1,2.6E1,2E2,1.22E2,6.81E2,3E1,2.7E1,3.9E1,7E0,6E0,1.94E2,1.17E2,5E0,4.92E2,1.89E2],"tree_param":{"num_deleted":"0","num_feature":"2","num_nodes":"33","size_leaf_vector":"1"}},{"base_weights":[-1.763586E-2,-2.7495673E0,1.6155266E1,1.3656983E1,6.687615E1,-8.538235E0,1.6983782E1,7.8378165E-1,4.1103405E1,1.5987848E1,-4.5585228E1,2.8009087E1,1.3849792E1,2.8452483E-1,7.3365676E-1,5.644201E-2,2.2310728E1,-8.3164716E-1,-3.1822313E1,3.811826E-1,2.651179E1,-1.0760677E1,1.8268028E1,2.651754E-1,1.6856372E-1,-3.7836927E-1,2.2285538E-2,1.396903E-1,2.6826084E-1,6.185604E-2,-1.3352509E-1,1.5155573E-1,2.930013E-1],"categories":[],"categories_nodes":[],"categories_segments":[],"categories_sizes":[],"default_left":[0,0,0,0,0,0,0,0,0,0,0,0,0,0,0,0,0,0,0,0,0,0,0,0,0,0,0,0,0,0,0,0,0],"id":34,"left_children":[1,-1,3,5,7,9,11,-1,13,15,17,19,21,-1,-1,-1,23,-1,25,-1,27,29,31,-1,-1,-1,-1,-1,-1,-1,-1,-1,-1],"loss_changes":[5.8427795E6,0E0,1.5634012E5,8.757039E4,1.3971828E4,1.4156456E5,3.5201875E4,0E0,6.0755117E3,6.021828E3,2.9420125E4,2.425375E3,8.761944E4,0E0,0E0,0E0,8.838457E2,0E0,9.710055E3,0E0,4.1764062E2,5.484991E3,2.2973688E4,0E0,0E0,0E0,0E0,0E0,0E0,0E0,0E0,0E0,0E0],"parents":[2147483647,0,0,2,2,3,3,4,4,5,5,6,6,8,8,9,9,10,10,11,11,12,12,16,16,18,18,20,20,21,21,22,22],"right_children":[2,-1,4,6,8,10,12,-1,14,16,18,20,22,-1,-1,-1,24,-1,26,-1,28,30,32,-1,-1,-1,-1,-1,-1,-1,-1,-1,-1],"split_conditions":[1.123E2,-2.7495673E0,1.224E2,1.148E2,1.234E2,1.133E2,1.16E2,7.8378165E-1,4.88E1,1.126E2,1.14E2,1.152E2,1.167E2,2.8452483E-1,7.3365676E-1,5.644201E-2,4.88E1,-8.3164716E-1,4.88E1,3.811826E-1,1.153E2,1.1627E2,1.188E2,2.651754E-1,1.6856372E-1,-3.7836927E-1,2.2285538E-2,1.396903E-1,2.6826084E-1,6.185604E-2,-1.3352509E-1,1.5155573E-1,2.930013E-1],"split_indices":[1,0,1,1,1,1,1,0,0,1,1,1,1,0,0,0,0,0,0,0,1,1,1,0,0,0,0,0,0,0,0,0,0],"split_type":[0,0,0,0,0,0,0,0,0,0,0,0,0,0,0,0,0,0,0,0,0,0,0,0,0,0,0,0,0,0,0,0,0],"sum_hessian":[1.312E3,7.2E1,1.24E3,1.183E3,5.7E1,1.54E2,1.029E3,3.8E1,1.9E1,9.3E1,6.1E1,2.26E2,8.03E2,1.5E1,4E0,3.6E1,5.7E1,1.5E1,4.6E1,2.6E1,2E2,1.22E2,6.81E2,3E1,2.7E1,3.9E1,7E0,6E0,1.94E2,1.6E1,1.06E2,5.33E2,1.48E2],"tree_param":{"num_deleted":"0","num_feature":"2","num_nodes":"33","size_leaf_vector":"1"}},{"base_weights":[-1.7825007E-2,-2.722448E0,1.5995543E1,1.3520808E1,6.623847E1,-8.457365E0,1.6815075E1,7.761451E-1,4.0743267E1,1.5833167E1,-4.5148537E1,2.7732483E1,1.371176E1,2.8185722E-1,7.277876E-1,5.5892695E-2,2.2095081E1,-8.2385033E-1,-3.1511675E1,3.7751216E-1,2.624871E1,-1.0653632E1,1.8085999E1,2.62609E-1,1.6693816E-1,-3.7468028E-1,2.2090606E-2,2.570863E-1,3.951652E-1,-9.054133E-2,-4.033485E-1,1.4463888E-1,2.738923E-1],"categories":[],"categories_nodes":[],"categories_segments":[],"categories_sizes":[],"default_left":[0,0,0,0,0,0,0,0,0,0,0,0,0,0,0,0,0,0,0,0,0,0,0,0,0,0,0,0,0,0,0,0,0],"id":35,"left_children":[1,-1,3,5,7,9,11,-1,13,15,17,19,21,-1,-1,-1,23,-1,25,-1,27,29,31,-1,-1,-1,-1,-1,-1,-1,-1,-1,-1],"loss_changes":[5.728077E6,0E0,1.5340775E5,8.586617E4,1.3659719E4,1.388583E5,3.4516312E4,0E0,5.994422E3,5.9062676E3,2.8886812E4,2.3835469E3,8.588305E4,0E0,0E0,0E0,8.6664453E2,0E0,9.522848E3,0E0,4.2439062E2,5.4742393E3,2.2585422E4,0E0,0E0,0E0,0E0,0E0,0E0,0E0,0E0,0E0,0E0],"parents":[2147483647,0,0,2,2,3,3,4,4,5,5,6,6,8,8,9,9,10,10,11,11,12,12,16,16,18,18,20,20,21,21,22,22],"right_children":[2,-1,4,6,8,10,12,-1,14,16,18,20,22,-1,-1,-1,24,-1,26,-1,28,30,32,-1,-1,-1,-1,-1,-1,-1,-1,-1,-1],"split_conditions":[1.123E2,-2.722448E0,1.224E2,1.148E2,1.234E2,1.133E2,1.16E2,7.761451E-1,4.88E1,1.126E2,1.14E2,1.152E2,1.167E2,2.8185722E-1,7.277876E-1,5.5892695E-2,4.88E1,-8.2385033E-1,4.88E1,3.7751216E-1,1.157E2,1.165E2,1.187E2,2.62609E-1,1.6693816E-1,-3.7468028E-1,2.2090606E-2,2.570863E-1,3.951652E-1,-9.054133E-2,-4.033485E-1,1.4463888E-1,2.738923E-1],"split_indices":[1,0,1,1,1,1,1,0,0,1,1,1,1,0,0,0,0,0,0,0,1,1,1,0,0,0,0,0,0,0,0,0,0],"split_type":[0,0,0,0,0,0,0,0,0,0,0,0,0,0,0,0,0,0,0,0,0,0,0,0,0,0,0,0,0,0,0,0,0],"sum_hessian":[1.312E3,7.2E1,1.24E3,1.183E3,5.7E1,1.54E2,1.029E3,3.8E1,1.9E1,9.3E1,6.1E1,2.26E2,8.03E2,1.5E1,4E0,3.6E1,5.7E1,1.5E1,4.6E1,2.6E1,2E2,1.22E2,6.81E2,3E1,2.7E1,3.9E1,7E0,1.95E2,5E0,1.17E2,5E0,4.92E2,1.89E2],"tree_param":{"num_deleted":"0","num_feature":"2","num_nodes":"33","size_leaf_vector":"1"}},{"base_weights":[-1.8160632E-2,-2.6955962E0,1.5837235E1,1.33858185E1,6.560689E1,-8.377253E0,1.6647848E1,7.685829E-1,4.0386314E1,1.5679988E1,-4.4716015E1,2.7459702E1,1.3574541E1,2.7921477E-1,7.219653E-1,5.5348724E-2,2.1881527E1,-8.161267E-1,-3.1204048E1,3.7387696E-1,2.5989475E1,-1.0551138E1,1.790575E1,2.6006737E-1,1.6532846E-1,-3.7102702E-1,2.1897277E-2,2.5452864E-1,3.9187235E-1,-8.964385E-2,-3.999875E-1,1.4850004E-1,2.8737038E-1],"categories":[],"categories_nodes":[],"categories_segments":[],"categories_sizes":[],"default_left":[0,0,0,0,0,0,0,0,0,0,0,0,0,0,0,0,0,0,0,0,0,0,0,0,0,0,0,0,0,0,0,0,0],"id":36,"left_children":[1,-1,3,5,7,9,11,-1,13,15,17,19,21,-1,-1,-1,23,-1,25,-1,27,29,31,-1,-1,-1,-1,-1,-1,-1,-1,-1,-1],"loss_changes":[5.61562E6,0E0,1.5053147E5,8.4193734E4,1.33544375E4,1.3620375E5,3.385222E4,0E0,5.9143516E3,5.7929297E3,2.8363227E4,2.3417031E3,8.420158E4,0E0,0E0,0E0,8.497715E2,0E0,9.339223E3,0E0,4.2607812E2,5.388743E3,2.2145844E4,0E0,0E0,0E0,0E0,0E0,0E0,0E0,0E0,0E0,0E0],"parents":[2147483647,0,0,2,2,3,3,4,4,5,5,6,6,8,8,9,9,10,10,11,11,12,12,16,16,18,18,20,20,21,21,22,22],"right_children":[2,-1,4,6,8,10,12,-1,14,16,18,20,22,-1,-1,-1,24,-1,26,-1,28,30,32,-1,-1,-1,-1,-1,-1,-1,-1,-1,-1],"split_conditions":[1.123E2,-2.6955962E0,1.224E2,1.148E2,1.234E2,1.133E2,1.16E2,7.685829E-1,4.88E1,1.126E2,1.14E2,1.152E2,1.167E2,2.7921477E-1,7.219653E-1,5.5348724E-2,4.88E1,-8.161267E-1,4.88E1,3.7387696E-1,1.157E2,1.165E2,1.188E2,2.6006737E-1,1.6532846E-1,-3.7102702E-1,2.1897277E-2,2.5452864E-1,3.9187235E-1,-8.964385E-2,-3.999875E-1,1.4850004E-1,2.8737038E-1],"split_indices":[1,0,1,1,1,1,1,0,0,1,1,1,1,0,0,0,0,0,0,0,1,1,1,0,0,0,0,0,0,0,0,0,0],"split_type":[0,0,0,0,0,0,0,0,0,0,0,0,0,0,0,0,0,0,0,0,0,0,0,0,0,0,0,0,0,0,0,0,0],"sum_hessian":[1.312E3,7.2E1,1.24E3,1.183E3,5.7E1,1.54E2,1.029E3,3.8E1,1.9E1,9.3E1,6.1E1,2.26E2,8.03E2,1.5E1,4E0,3.6E1,5.7E1,1.5E1,4.6E1,2.6E1,2E2,1.22E2,6.81E2,3E1,2.7E1,3.9E1,7E0,1.95E2,5E0,1.17E2,5E0,5.33E2,1.48E2],"tree_param":{"num_deleted":"0","num_feature":"2","num_nodes":"33","size_leaf_vector":"1"}},{"base_weights":[-1.846325E-2,-2.6690094E0,1.5680522E1,1.3252204E1,6.4981346E1,-8.297904E0,1.6482315E1,7.610944E-1,4.0032494E1,1.5528293E1,-4.4287655E1,2.7189608E1,1.3438736E1,2.7659693E-1,7.161894E-1,5.48101E-2,2.1670036E1,-8.084758E-1,-3.0899433E1,3.702764E-1,2.573281E1,-1.0449592E1,1.7727337E1,2.5755057E-1,1.6373406E-1,-3.6740944E-1,2.1705551E-2,2.5199643E-1,3.8860697E-1,6.29699E-2,-1.3012603E-1,1.417133E-1,2.686093E-1],"categories":[],"categories_nodes":[],"categories_segments":[],"categories_sizes":[],"default_left":[0,0,0,0,0,0,0,0,0,0,0,0,0,0,0,0,0,0,0,0,0,0,0,0,0,0,0,0,0,0,0,0,0],"id":37,"left_children":[1,-1,3,5,7,9,11,-1,13,15,17,19,21,-1,-1,-1,23,-1,25,-1,27,29,31,-1,-1,-1,-1,-1,-1,-1,-1,-1,-1],"loss_changes":[5.5053715E6,0E0,1.4770894E5,8.255409E4,1.3055891E4,1.3360003E5,3.320075E4,0E0,5.835295E3,5.6817637E3,2.7849148E4,2.3005469E3,8.255303E4,0E0,0E0,0E0,8.332383E2,0E0,9.159148E3,0E0,4.2759375E2,5.3613096E3,2.177011E4,0E0,0E0,0E0,0E0,0E0,0E0,0E0,0E0,0E0,0E0],"parents":[2147483647,0,0,2,2,3,3,4,4,5,5,6,6,8,8,9,9,10,10,11,11,12,12,16,16,18,18,20,20,21,21,22,22],"right_children":[2,-1,4,6,8,10,12,-1,14,16,18,20,22,-1,-1,-1,24,-1,26,-1,28,30,32,-1,-1,-1,-1,-1,-1,-1,-1,-1,-1],"split_conditions":[1.123E2,-2.6690094E0,1.224E2,1.148E2,1.234E2,1.133E2,1.16E2,7.610944E-1,4.88E1,1.126E2,1.14E2,1.152E2,1.167E2,2.7659693E-1,7.161894E-1,5.48101E-2,4.88E1,-8.084758E-1,4.88E1,3.702764E-1,1.157E2,1.1627E2,1.187E2,2.5755057E-1,1.6373406E-1,-3.6740944E-1,2.1705551E-2,2.5199643E-1,3.8860697E-1,6.29699E-2,-1.3012603E-1,1.417133E-1,2.686093E-1],"split_indices":[1,0,1,1,1,1,1,0,0,1,1,1,1,0,0,0,0,0,0,0,1,1,1,0,0,0,0,0,0,0,0,0,0],"split_type":[0,0,0,0,0,0,0,0,0,0,0,0,0,0,0,0,0,0,0,0,0,0,0,0,0,0,0,0,0,0,0,0,0],"sum_hessian":[1.312E3,7.2E1,1.24E3,1.183E3,5.7E1,1.54E2,1.029E3,3.8E1,1.9E1,9.3E1,6.1E1,2.26E2,8.03E2,1.5E1,4E0,3.6E1,5.7E1,1.5E1,4.6E1,2.6E1,2E2,1.22E2,6.81E2,3E1,2.7E1,3.9E1,7E0,1.95E2,5E0,1.6E1,1.06E2,4.92E2,1.89E2],"tree_param":{"num_deleted":"0","num_feature":"2","num_nodes":"33","size_leaf_vector":"1"}},{"base_weights":[-1.8469945E-2,-2.642685E0,1.5525665E1,1.3120243E1,6.4361755E1,-8.219303E0,1.6318796E1,7.536785E-1,3.9681797E1,1.5378062E1,-4.3863384E1,2.6922146E1,1.3304767E1,2.740037E-1,7.1045995E-1,5.4276813E-2,2.1460579E1,-8.008963E-1,-3.059778E1,3.6671054E-1,2.5478651E1,-1.0345644E1,1.7550655E1,2.5505796E-1,1.6215497E-1,-3.6382696E-1,2.1515425E-2,2.4948914E-1,3.8536853E-1,-8.772645E-2,-3.9557007E-1,1.4550583E-1,2.81848E-1],"categories":[],"categories_nodes":[],"categories_segments":[],"categories_sizes":[],"default_left":[0,0,0,0,0,0,0,0,0,0,0,0,0,0,0,0,0,0,0,0,0,0,0,0,0,0,0,0,0,0,0,0,0],"id":38,"left_children":[1,-1,3,5,7,9,11,-1,13,15,17,19,21,-1,-1,-1,23,-1,25,-1,27,29,31,-1,-1,-1,-1,-1,-1,-1,-1,-1,-1],"loss_changes":[5.397301E6,0E0,1.4493756E5,8.094881E4,1.2763781E4,1.31046016E5,3.2559375E4,0E0,5.757252E3,5.572715E3,2.7344344E4,2.260125E3,8.091684E4,0E0,0E0,0E0,8.1702734E2,0E0,8.982527E3,0E0,4.289375E2,5.3047607E3,2.134789E4,0E0,0E0,0E0,0E0,0E0,0E0,0E0,0E0,0E0,0E0],"parents":[2147483647,0,0,2,2,3,3,4,4,5,5,6,6,8,8,9,9,10,10,11,11,12,12,16,16,18,18,20,20,21,21,22,22],"right_children":[2,-1,4,6,8,10,12,-1,14,16,18,20,22,-1,-1,-1,24,-1,26,-1,28,30,32,-1,-1,-1,-1,-1,-1,-1,-1,-1,-1],"split_conditions":[1.123E2,-2.642685E0,1.224E2,1.148E2,1.234E2,1.133E2,1.16E2,7.536785E-1,4.88E1,1.126E2,1.14E2,1.152E2,1.167E2,2.740037E-1,7.1045995E-1,5.4276813E-2,4.88E1,-8.008963E-1,4.88E1,3.6671054E-1,1.157E2,1.165E2,1.188E2,2.5505796E-1,1.6215497E-1,-3.6382696E-1,2.1515425E-2,2.4948914E-1,3.8536853E-1,-8.772645E-2,-3.9557007E-1,1.4550583E-1,2.81848E-1],"split_indices":[1,0,1,1,1,1,1,0,0,1,1,1,1,0,0,0,0,0,0,0,1,1,1,0,0,0,0,0,0,0,0,0,0],"split_type":[0,0,0,0,0,0,0,0,0,0,0,0,0,0,0,0,0,0,0,0,0,0,0,0,0,0,0,0,0,0,0,0,0],"sum_hessian":[1.312E3,7.2E1,1.24E3,1.183E3,5.7E1,1.54E2,1.029E3,3.8E1,1.9E1,9.3E1,6.1E1,2.26E2,8.03E2,1.5E1,4E0,3.6E1,5.7E1,1.5E1,4.6E1,2.6E1,2E2,1.22E2,6.81E2,3E1,2.7E1,3.9E1,7E0,1.95E2,5E0,1.17E2,5E0,5.33E2,1.48E2],"tree_param":{"num_deleted":"0","num_feature":"2","num_nodes":"33","size_leaf_vector":"1"}},{"base_weights":[-1.8771077E-2,-2.61662E0,1.5372023E1,1.29892645E1,6.3748123E1,-8.141443E0,1.6156517E1,7.46335E-1,3.9334217E1,1.5229297E1,-4.3443188E1,2.6657318E1,1.3171643E1,2.7143508E-1,7.0477635E-1,5.374888E-2,2.1253157E1,-7.933879E-1,-3.0299086E1,3.631794E-1,2.5227001E1,-1.0246135E1,1.737577E1,2.5258958E-1,1.6059119E-1,-3.6027965E-1,2.1326903E-2,1.2980887E-1,2.5537235E-1,6.320255E-2,-1.2782419E-1,1.3884683E-1,2.6342773E-1],"categories":[],"categories_nodes":[],"categories_segments":[],"categories_sizes":[],"default_left":[0,0,0,0,0,0,0,0,0,0,0,0,0,0,0,0,0,0,0,0,0,0,0,0,0,0,0,0,0,0,0,0,0],"id":39,"left_children":[1,-1,3,5,7,9,11,-1,13,15,17,19,21,-1,-1,-1,23,-1,25,-1,27,29,31,-1,-1,-1,-1,-1,-1,-1,-1,-1,-1],"loss_changes":[5.291338E6,0E0,1.4222025E5,7.937225E4,1.2478125E4,1.2854093E5,3.1932781E4,0E0,5.6801953E3,5.465754E3,2.6848664E4,2.2204219E3,7.933291E4,0E0,0E0,0E0,8.0112695E2,0E0,8.809328E3,0E0,4.3214062E2,5.2488896E3,2.0983969E4,0E0,0E0,0E0,0E0,0E0,0E0,0E0,0E0,0E0,0E0],"parents":[2147483647,0,0,2,2,3,3,4,4,5,5,6,6,8,8,9,9,10,10,11,11,12,12,16,16,18,18,20,20,21,21,22,22],"right_children":[2,-1,4,6,8,10,12,-1,14,16,18,20,22,-1,-1,-1,24,-1,26,-1,28,30,32,-1,-1,-1,-1,-1,-1,-1,-1,-1,-1],"split_conditions":[1.123E2,-2.61662E0,1.224E2,1.148E2,1.234E2,1.133E2,1.16E2,7.46335E-1,4.88E1,1.126E2,1.14E2,1.152E2,1.167E2,2.7143508E-1,7.0477635E-1,5.374888E-2,4.88E1,-7.933879E-1,4.88E1,3.631794E-1,1.153E2,1.1627E2,1.187E2,2.5258958E-1,1.6059119E-1,-3.6027965E-1,2.1326903E-2,1.2980887E-1,2.5537235E-1,6.320255E-2,-1.2782419E-1,1.3884683E-1,2.6342773E-1],"split_indices":[1,0,1,1,1,1,1,0,0,1,1,1,1,0,0,0,0,0,0,0,1,1,1,0,0,0,0,0,0,0,0,0,0],"split_type":[0,0,0,0,0,0,0,0,0,0,0,0,0,0,0,0,0,0,0,0,0,0,0,0,0,0,0,0,0,0,0,0,0],"sum_hessian":[1.312E3,7.2E1,1.24E3,1.183E3,5.7E1,1.54E2,1.029E3,3.8E1,1.9E1,9.3E1,6.1E1,2.26E2,8.03E2,1.5E1,4E0,3.6E1,5.7E1,1.5E1,4.6E1,2.6E1,2E2,1.22E2,6.81E2,3E1,2.7E1,3.9E1,7E0,6E0,1.94E2,1.6E1,1.06E2,4.92E2,1.89E2],"tree_param":{"num_deleted":"0","num_feature":"2","num_nodes":"33","size_leaf_vector":"1"}},{"base_weights":[-1.8946465E-2,-2.590812E0,1.5220026E1,1.2859723E1,6.3140343E1,-8.064317E0,1.5996001E1,7.390631E-1,3.8989693E1,1.5081973E1,-4.3027008E1,2.6394045E1,1.3040339E1,2.688905E-1,6.9913816E-1,5.3225692E-2,2.1047766E1,-7.8594977E-1,-3.0003294E1,3.596823E-1,2.4976648E1,-1.0144217E1,1.7202597E1,2.501454E-1,1.590427E-1,-3.5676682E-1,2.1140518E-2,2.4450453E-1,3.80029E-1,-8.58486E-2,-3.912086E-1,1.4257188E-1,2.7643174E-1],"categories":[],"categories_nodes":[],"categories_segments":[],"categories_sizes":[],"default_left":[0,0,0,0,0,0,0,0,0,0,0,0,0,0,0,0,0,0,0,0,0,0,0,0,0,0,0,0,0,0,0,0,0],"id":40,"left_children":[1,-1,3,5,7,9,11,-1,13,15,17,19,21,-1,-1,-1,23,-1,25,-1,27,29,31,-1,-1,-1,-1,-1,-1,-1,-1,-1,-1],"loss_changes":[5.1874605E6,0E0,1.3955319E5,7.782736E4,1.2198703E4,1.26083695E5,3.1310906E4,0E0,5.604121E3,5.3608945E3,2.6361969E4,2.182125E3,7.776058E4,0E0,0E0,0E0,7.8554297E2,0E0,8.639484E3,0E0,4.4853906E2,5.2218975E3,2.0578594E4,0E0,0E0,0E0,0E0,0E0,0E0,0E0,0E0,0E0,0E0],"parents":[2147483647,0,0,2,2,3,3,4,4,5,5,6,6,8,8,9,9,10,10,11,11,12,12,16,16,18,18,20,20,21,21,22,22],"right_children":[2,-1,4,6,8,10,12,-1,14,16,18,20,22,-1,-1,-1,24,-1,26,-1,28,30,32,-1,-1,-1,-1,-1,-1,-1,-1,-1,-1],"split_conditions":[1.123E2,-2.590812E0,1.224E2,1.148E2,1.234E2,1.133E2,1.16E2,7.390631E-1,4.88E1,1.126E2,1.14E2,1.152E2,1.167E2,2.688905E-1,6.9913816E-1,5.3225692E-2,4.88E1,-7.8594977E-1,4.88E1,3.596823E-1,1.157E2,1.165E2,1.188E2,2.501454E-1,1.590427E-1,-3.5676682E-1,2.1140518E-2,2.4450453E-1,3.80029E-1,-8.58486E-2,-3.912086E-1,1.4257188E-1,2.7643174E-1],"split_indices":[1,0,1,1,1,1,1,0,0,1,1,1,1,0,0,0,0,0,0,0,1,1,1,0,0,0,0,0,0,0,0,0,0],"split_type":[0,0,0,0,0,0,0,0,0,0,0,0,0,0,0,0,0,0,0,0,0,0,0,0,0,0,0,0,0,0,0,0,0],"sum_hessian":[1.312E3,7.2E1,1.24E3,1.183E3,5.7E1,1.54E2,1.029E3,3.8E1,1.9E1,9.3E1,6.1E1,2.26E2,8.03E2,1.5E1,4E0,3.6E1,5.7E1,1.5E1,4.6E1,2.6E1,2E2,1.22E2,6.81E2,3E1,2.7E1,3.9E1,7E0,1.95E2,5E0,1.17E2,5E0,5.33E2,1.48E2],"tree_param":{"num_deleted":"0","num_feature":"2","num_nodes":"33","size_leaf_vector":"1"}},{"base_weights":[-1.9226817E-2,-2.5652587E0,1.5069416E1,1.2731352E1,6.2538357E1,-7.9879265E0,1.5836941E1,7.318619E-1,3.864817E1,1.4936077E1,-4.2614834E1,2.613444E1,1.2909864E1,2.6636934E-1,6.935449E-1,5.2707847E-2,2.0844347E1,-7.785815E-1,-2.9710413E1,3.5621873E-1,2.4729986E1,-1.0046625E1,1.7031181E1,2.4772488E-1,1.5750894E-1,-3.532885E-1,2.0955734E-2,2.4207193E-1,3.768623E-1,-8.499711E-2,-3.879483E-1,1.360382E-1,2.5834644E-1],"categories":[],"categories_nodes":[],"categories_segments":[],"categories_sizes":[],"default_left":[0,0,0,0,0,0,0,0,0,0,0,0,0,0,0,0,0,0,0,0,0,0,0,0,0,0,0,0,0,0,0,0,0],"id":41,"left_children":[1,-1,3,5,7,9,11,-1,13,15,17,19,21,-1,-1,-1,23,-1,25,-1,27,29,31,-1,-1,-1,-1,-1,-1,-1,-1,-1,-1],"loss_changes":[5.0856185E6,0E0,1.3693672E5,7.631166E4,1.19254375E4,1.2367355E5,3.0708438E4,0E0,5.5290234E3,5.2580195E3,2.5884062E4,2.1437656E3,7.623833E4,0E0,0E0,0E0,7.702637E2,0E0,8.472934E3,0E0,4.491797E2,5.1401885E3,2.0226297E4,0E0,0E0,0E0,0E0,0E0,0E0,0E0,0E0,0E0,0E0],"parents":[2147483647,0,0,2,2,3,3,4,4,5,5,6,6,8,8,9,9,10,10,11,11,12,12,16,16,18,18,20,20,21,21,22,22],"right_children":[2,-1,4,6,8,10,12,-1,14,16,18,20,22,-1,-1,-1,24,-1,26,-1,28,30,32,-1,-1,-1,-1,-1,-1,-1,-1,-1,-1],"split_conditions":[1.123E2,-2.5652587E0,1.224E2,1.148E2,1.234E2,1.133E2,1.16E2,7.318619E-1,4.88E1,1.126E2,1.14E2,1.152E2,1.167E2,2.6636934E-1,6.935449E-1,5.2707847E-2,4.88E1,-7.785815E-1,4.88E1,3.5621873E-1,1.157E2,1.165E2,1.187E2,2.4772488E-1,1.5750894E-1,-3.532885E-1,2.0955734E-2,2.4207193E-1,3.768623E-1,-8.499711E-2,-3.879483E-1,1.360382E-1,2.5834644E-1],"split_indices":[1,0,1,1,1,1,1,0,0,1,1,1,1,0,0,0,0,0,0,0,1,1,1,0,0,0,0,0,0,0,0,0,0],"split_type":[0,0,0,0,0,0,0,0,0,0,0,0,0,0,0,0,0,0,0,0,0,0,0,0,0,0,0,0,0,0,0,0,0],"sum_hessian":[1.312E3,7.2E1,1.24E3,1.183E3,5.7E1,1.54E2,1.029E3,3.8E1,1.9E1,9.3E1,6.1E1,2.26E2,8.03E2,1.5E1,4E0,3.6E1,5.7E1,1.5E1,4.6E1,2.6E1,2E2,1.22E2,6.81E2,3E1,2.7E1,3.9E1,7E0,1.95E2,5E0,1.17E2,5E0,4.92E2,1.89E2],"tree_param":{"num_deleted":"0","num_feature":"2","num_nodes":"33","size_leaf_vector":"1"}},{"base_weights":[-1.9519536E-2,-2.5399578E0,1.4920277E1,1.26042385E1,6.194214E1,-7.912278E0,1.5679439E1,7.2473073E-1,3.8309696E1,1.4791566E1,-4.220662E1,2.5877398E1,1.2780663E1,2.6387227E-1,6.8799657E-1,5.2194756E-2,2.0642872E1,-7.712825E-1,-2.9420391E1,3.527886E-1,2.4485771E1,-9.949981E0,1.6861437E1,2.4532737E-1,1.5598989E-1,-3.498441E-1,2.0772552E-2,2.3966363E-1,3.737215E-1,6.4215876E-2,-1.2458081E-1,1.3969693E-1,2.711197E-1],"categories":[],"categories_nodes":[],"categories_segments":[],"categories_sizes":[],"default_left":[0,0,0,0,0,0,0,0,0,0,0,0,0,0,0,0,0,0,0,0,0,0,0,0,0,0,0,0,0,0,0,0,0],"id":42,"left_children":[1,-1,3,5,7,9,11,-1,13,15,17,19,21,-1,-1,-1,23,-1,25,-1,27,29,31,-1,-1,-1,-1,-1,-1,-1,-1,-1,-1],"loss_changes":[4.985776E6,0E0,1.343696E5,7.482544E4,1.1658141E4,1.2130937E5,3.0117734E4,0E0,5.454879E3,5.157123E3,2.5414852E4,2.1060938E3,7.474572E4,0E0,0E0,0E0,7.5527344E2,0E0,8.30959E3,0E0,4.4967188E2,5.1305693E3,1.9837062E4,0E0,0E0,0E0,0E0,0E0,0E0,0E0,0E0,0E0,0E0],"parents":[2147483647,0,0,2,2,3,3,4,4,5,5,6,6,8,8,9,9,10,10,11,11,12,12,16,16,18,18,20,20,21,21,22,22],"right_children":[2,-1,4,6,8,10,12,-1,14,16,18,20,22,-1,-1,-1,24,-1,26,-1,28,30,32,-1,-1,-1,-1,-1,-1,-1,-1,-1,-1],"split_conditions":[1.123E2,-2.5399578E0,1.224E2,1.148E2,1.234E2,1.133E2,1.16E2,7.2473073E-1,4.88E1,1.126E2,1.14E2,1.152E2,1.167E2,2.6387227E-1,6.8799657E-1,5.2194756E-2,4.88E1,-7.712825E-1,4.88E1,3.527886E-1,1.157E2,1.1627E2,1.188E2,2.4532737E-1,1.5598989E-1,-3.498441E-1,2.0772552E-2,2.3966363E-1,3.737215E-1,6.4215876E-2,-1.2458081E-1,1.3969693E-1,2.711197E-1],"split_indices":[1,0,1,1,1,1,1,0,0,1,1,1,1,0,0,0,0,0,0,0,1,1,1,0,0,0,0,0,0,0,0,0,0],"split_type":[0,0,0,0,0,0,0,0,0,0,0,0,0,0,0,0,0,0,0,0,0,0,0,0,0,0,0,0,0,0,0,0,0],"sum_hessian":[1.312E3,7.2E1,1.24E3,1.183E3,5.7E1,1.54E2,1.029E3,3.8E1,1.9E1,9.3E1,6.1E1,2.26E2,8.03E2,1.5E1,4E0,3.6E1,5.7E1,1.5E1,4.6E1,2.6E1,2E2,1.22E2,6.81E2,3E1,2.7E1,3.9E1,7E0,1.95E2,5E0,1.6E1,1.06E2,5.33E2,1.48E2],"tree_param":{"num_deleted":"0","num_feature":"2","num_nodes":"33","size_leaf_vector":"1"}},{"base_weights":[-1.9477839E-2,-2.514906E0,1.4772957E1,1.2478754E1,6.1351627E1,-7.837319E0,1.5523911E1,7.176693E-1,3.7974205E1,1.4648482E1,-4.1802288E1,2.5622862E1,1.2653283E1,2.613986E-1,6.824927E-1,5.168701E-2,2.0443369E1,-7.640515E-1,-2.9133177E1,3.4939143E-1,2.4243944E1,-9.850978E0,1.6693417E1,2.4295351E-1,1.5448554E-1,-3.46433E-1,2.0590972E-2,2.3727901E-1,3.7060717E-1,-8.317491E-2,-3.8367736E-1,1.3328622E-1,2.5336307E-1],"categories":[],"categories_nodes":[],"categories_segments":[],"categories_sizes":[],"default_left":[0,0,0,0,0,0,0,0,0,0,0,0,0,0,0,0,0,0,0,0,0,0,0,0,0,0,0,0,0,0,0,0,0],"id":43,"left_children":[1,-1,3,5,7,9,11,-1,13,15,17,19,21,-1,-1,-1,23,-1,25,-1,27,29,31,-1,-1,-1,-1,-1,-1,-1,-1,-1,-1],"loss_changes":[4.8879045E6,0E0,1.3184881E5,7.337059E4,1.1396703E4,1.18990414E5,2.9535844E4,0E0,5.3816855E3,5.0581543E3,2.4954094E4,2.0690625E3,7.32643E4,0E0,0E0,0E0,7.405879E2,0E0,8.149379E3,0E0,4.5004688E2,5.0596797E3,1.9495906E4,0E0,0E0,0E0,0E0,0E0,0E0,0E0,0E0,0E0,0E0],"parents":[2147483647,0,0,2,2,3,3,4,4,5,5,6,6,8,8,9,9,10,10,11,11,12,12,16,16,18,18,20,20,21,21,22,22],"right_children":[2,-1,4,6,8,10,12,-1,14,16,18,20,22,-1,-1,-1,24,-1,26,-1,28,30,32,-1,-1,-1,-1,-1,-1,-1,-1,-1,-1],"split_conditions":[1.123E2,-2.514906E0,1.224E2,1.148E2,1.234E2,1.133E2,1.16E2,7.176693E-1,4.88E1,1.126E2,1.14E2,1.152E2,1.167E2,2.613986E-1,6.824927E-1,5.168701E-2,4.88E1,-7.640515E-1,4.88E1,3.4939143E-1,1.157E2,1.165E2,1.187E2,2.4295351E-1,1.5448554E-1,-3.46433E-1,2.0590972E-2,2.3727901E-1,3.7060717E-1,-8.317491E-2,-3.8367736E-1,1.3328622E-1,2.5336307E-1],"split_indices":[1,0,1,1,1,1,1,0,0,1,1,1,1,0,0,0,0,0,0,0,1,1,1,0,0,0,0,0,0,0,0,0,0],"split_type":[0,0,0,0,0,0,0,0,0,0,0,0,0,0,0,0,0,0,0,0,0,0,0,0,0,0,0,0,0,0,0,0,0],"sum_hessian":[1.312E3,7.2E1,1.24E3,1.183E3,5.7E1,1.54E2,1.029E3,3.8E1,1.9E1,9.3E1,6.1E1,2.26E2,8.03E2,1.5E1,4E0,3.6E1,5.7E1,1.5E1,4.6E1,2.6E1,2E2,1.22E2,6.81E2,3E1,2.7E1,3.9E1,7E0,1.95E2,5E0,1.17E2,5E0,4.92E2,1.89E2],"tree_param":{"num_deleted":"0","num_feature":"2","num_nodes":"33","size_leaf_vector":"1"}},{"base_weights":[-1.9760609E-2,-2.4901013E0,1.4626749E1,1.2354158E1,6.0766766E1,-7.763086E0,1.5369516E1,7.106768E-1,3.7641647E1,1.4506764E1,-4.140184E1,2.5370832E1,1.2526645E1,2.5894785E-1,6.770327E-1,5.1184013E-2,2.0245775E1,-7.568886E-1,-2.8848774E1,3.4602717E-1,2.4004505E1,-9.756248E0,1.652704E1,2.4060206E-1,1.5299591E-1,-3.4305525E-1,2.0410996E-2,2.3491806E-1,3.675188E-1,6.4394526E-2,-1.2238218E-1,1.3687977E-1,2.6591015E-1],"categories":[],"categories_nodes":[],"categories_segments":[],"categories_sizes":[],"default_left":[0,0,0,0,0,0,0,0,0,0,0,0,0,0,0,0,0,0,0,0,0,0,0,0,0,0,0,0,0,0,0,0,0],"id":44,"left_children":[1,-1,3,5,7,9,11,-1,13,15,17,19,21,-1,-1,-1,23,-1,25,-1,27,29,31,-1,-1,-1,-1,-1,-1,-1,-1,-1,-1],"loss_changes":[4.7919435E6,0E0,1.2937731E5,7.194158E4,1.11410625E4,1.16715766E5,2.896761E4,0E0,5.3094336E3,4.96109E3,2.4501719E4,2.0327031E3,7.1830086E4,0E0,0E0,0E0,7.26166E2,0E0,7.9922734E3,0E0,4.5028125E2,5.0230664E3,1.9122328E4,0E0,0E0,0E0,0E0,0E0,0E0,0E0,0E0,0E0,0E0],"parents":[2147483647,0,0,2,2,3,3,4,4,5,5,6,6,8,8,9,9,10,10,11,11,12,12,16,16,18,18,20,20,21,21,22,22],"right_children":[2,-1,4,6,8,10,12,-1,14,16,18,20,22,-1,-1,-1,24,-1,26,-1,28,30,32,-1,-1,-1,-1,-1,-1,-1,-1,-1,-1],"split_conditions":[1.123E2,-2.4901013E0,1.224E2,1.148E2,1.234E2,1.133E2,1.16E2,7.106768E-1,4.88E1,1.126E2,1.14E2,1.152E2,1.167E2,2.5894785E-1,6.770327E-1,5.1184013E-2,4.88E1,-7.568886E-1,4.88E1,3.4602717E-1,1.157E2,1.1627E2,1.188E2,2.4060206E-1,1.5299591E-1,-3.4305525E-1,2.0410996E-2,2.3491806E-1,3.675188E-1,6.4394526E-2,-1.2238218E-1,1.3687977E-1,2.6591015E-1],"split_indices":[1,0,1,1,1,1,1,0,0,1,1,1,1,0,0,0,0,0,0,0,1,1,1,0,0,0,0,0,0,0,0,0,0],"split_type":[0,0,0,0,0,0,0,0,0,0,0,0,0,0,0,0,0,0,0,0,0,0,0,0,0,0,0,0,0,0,0,0,0],"sum_hessian":[1.312E3,7.2E1,1.24E3,1.183E3,5.7E1,1.54E2,1.029E3,3.8E1,1.9E1,9.3E1,6.1E1,2.26E2,8.03E2,1.5E1,4E0,3.6E1,5.7E1,1.5E1,4.6E1,2.6E1,2E2,1.22E2,6.81E2,3E1,2.7E1,3.9E1,7E0,1.95E2,5E0,1.6E1,1.06E2,5.33E2,1.48E2],"tree_param":{"num_deleted":"0","num_feature":"2","num_nodes":"33","size_leaf_vector":"1"}},{"base_weights":[-1.97164E-2,-2.4655414E0,1.4482326E1,1.2231159E1,6.018747E1,-7.6895514E0,1.5217061E1,7.0375204E-1,3.7312004E1,1.4366414E1,-4.1005215E1,2.51213E1,1.2401788E1,2.5652E-1,6.716162E-1,5.068577E-2,2.0050097E1,-7.4979275E-1,-2.8567127E1,3.4269527E-1,2.3767452E1,-9.659163E0,1.6362339E1,2.382737E-1,1.515204E-1,-3.3971027E-1,2.023262E-2,2.3258081E-1,3.6445636E-1,-8.1389904E-2,-3.7946033E-1,4.628082E-1,1.5388545E-1],"categories":[],"categories_nodes":[],"categories_segments":[],"categories_sizes":[],"default_left":[0,0,0,0,0,0,0,0,0,0,0,0,0,0,0,0,0,0,0,0,0,0,0,0,0,0,0,0,0,0,0,0,0],"id":45,"left_children":[1,-1,3,5,7,9,11,-1,13,15,17,19,21,-1,-1,-1,23,-1,25,-1,27,29,31,-1,-1,-1,-1,-1,-1,-1,-1,-1,-1],"loss_changes":[4.6978775E6,0E0,1.2695014E5,7.054286E4,1.0891031E4,1.14484516E5,2.8408078E4,0E0,5.2381055E3,4.8658926E3,2.4057547E4,1.9969688E3,7.0406336E4,0E0,0E0,0E0,7.12041E2,0E0,7.8381797E3,0E0,4.503828E2,4.9802734E3,1.9157469E4,0E0,0E0,0E0,0E0,0E0,0E0,0E0,0E0,0E0,0E0],"parents":[2147483647,0,0,2,2,3,3,4,4,5,5,6,6,8,8,9,9,10,10,11,11,12,12,16,16,18,18,20,20,21,21,22,22],"right_children":[2,-1,4,6,8,10,12,-1,14,16,18,20,22,-1,-1,-1,24,-1,26,-1,28,30,32,-1,-1,-1,-1,-1,-1,-1,-1,-1,-1],"split_conditions":[1.123E2,-2.4655414E0,1.224E2,1.148E2,1.234E2,1.133E2,1.16E2,7.0375204E-1,4.88E1,1.126E2,1.14E2,1.152E2,1.167E2,2.5652E-1,6.716162E-1,5.068577E-2,4.88E1,-7.4979275E-1,4.88E1,3.4269527E-1,1.157E2,1.165E2,1.171E2,2.382737E-1,1.515204E-1,-3.3971027E-1,2.023262E-2,2.3258081E-1,3.6445636E-1,-8.1389904E-2,-3.7946033E-1,4.628082E-1,1.5388545E-1],"split_indices":[1,0,1,1,1,1,1,0,0,1,1,1,1,0,0,0,0,0,0,0,1,1,1,0,0,0,0,0,0,0,0,0,0],"split_type":[0,0,0,0,0,0,0,0,0,0,0,0,0,0,0,0,0,0,0,0,0,0,0,0,0,0,0,0,0,0,0,0,0],"sum_hessian":[1.312E3,7.2E1,1.24E3,1.183E3,5.7E1,1.54E2,1.029E3,3.8E1,1.9E1,9.3E1,6.1E1,2.26E2,8.03E2,1.5E1,4E0,3.6E1,5.7E1,1.5E1,4.6E1,2.6E1,2E2,1.22E2,6.81E2,3E1,2.7E1,3.9E1,7E0,1.95E2,5E0,1.17E2,5E0,2E1,6.61E2],"tree_param":{"num_deleted":"0","num_feature":"2","num_nodes":"33","size_leaf_vector":"1"}},{"base_weights":[-1.9797983E-2,-2.441224E0,1.4339195E1,1.2109243E1,5.961374E1,-7.6167064E0,1.5065955E1,6.968952E-1,3.6985283E1,1.4227435E1,-4.0612392E1,2.4874205E1,1.2277972E1,2.5411503E1,6.6624314E-1,5.019287E-2,1.9856298E1,-7.427632E-1,-2.8288239E1,3.3939505E-1,2.3532724E1,-9.566347E0,1.6199635E1,2.1140917E-1,3.6870403E1,2.3596774E-1,1.5005903E-1,-3.3639798E-1,2.0055847E-2,1.1642961E-1,2.3838855E-1,6.455423E-2,-1.20224565E-1,1.2892877E-1,2.4694535E-1,4.4652802E-1,1.06528014E-1],"categories":[],"categories_nodes":[],"categories_segments":[],"categories_sizes":[],"default_left":[0,0,0,0,0,0,0,0,0,0,0,0,0,0,0,0,0,0,0,0,0,0,0,0,0,0,0,0,0,0,0,0,0,0,0,0,0],"id":46,"left_children":[1,-1,3,5,7,9,11,-1,13,15,17,19,21,23,-1,-1,25,-1,27,-1,29,31,33,-1,35,-1,-1,-1,-1,-1,-1,-1,-1,-1,-1,-1,-1],"loss_changes":[4.6056545E6,0E0,1.2456955E5,6.917031E4,1.0646469E4,1.12296E5,2.7860156E4,0E0,5.1676875E3,4.7724863E3,2.3621367E4,1.9618438E3,6.903046E4,3.5048828E0,0E0,0E0,6.981914E2,0E0,7.6870703E3,0E0,4.5404688E2,4.9178105E3,1.883939E4,0E0,1.3643042E2,0E0,0E0,0E0,0E0,0E0,0E0,0E0,0E0,0E0,0E0,0E0,0E0],"parents":[2147483647,0,0,2,2,3,3,4,4,5,5,6,6,8,8,9,9,10,10,11,11,12,12,13,13,16,16,18,18,20,20,21,21,22,22,24,24],"right_children":[2,-1,4,6,8,10,12,-1,14,16,18,20,22,24,-1,-1,26,-1,28,-1,30,32,34,-1,36,-1,-1,-1,-1,-1,-1,-1,-1,-1,-1,-1,-1],"split_conditions":[1.123E2,-2.441224E0,1.224E2,1.148E2,1.234E2,1.133E2,1.16E2,6.968952E-1,4.88E1,1.126E2,1.14E2,1.152E2,1.167E2,1.235E2,6.6624314E-1,5.019287E-2,4.88E1,-7.427632E-1,4.88E1,3.3939505E-1,1.153E2,1.1627E2,1.187E2,2.1140917E-1,1.236E2,2.3596774E-1,1.5005903E-1,-3.3639798E-1,2.0055847E-2,1.1642961E-1,2.3838855E-1,6.455423E-2,-1.20224565E-1,1.2892877E-1,2.4694535E-1,4.4652802E-1,1.06528014E-1],"split_indices":[1,0,1,1,1,1,1,0,0,1,1,1,1,1,0,0,0,0,0,0,1,1,1,0,1,0,0,0,0,0,0,0,0,0,0,0,0],"split_type":[0,0,0,0,0,0,0,0,0,0,0,0,0,0,0,0,0,0,0,0,0,0,0,0,0,0,0,0,0,0,0,0,0,0,0,0,0],"sum_hessian":[1.312E3,7.2E1,1.24E3,1.183E3,5.7E1,1.54E2,1.029E3,3.8E1,1.9E1,9.3E1,6.1E1,2.26E2,8.03E2,1.5E1,4E0,3.6E1,5.7E1,1.5E1,4.6E1,2.6E1,2E2,1.22E2,6.81E2,1.3E1,2E0,3E1,2.7E1,3.9E1,7E0,6E0,1.94E2,1.6E1,1.06E2,4.92E2,1.89E2,1E0,1E0],"tree_param":{"num_deleted":"0","num_feature":"2","num_nodes":"37","size_leaf_vector":"1"}},{"base_weights":[-1.9534225E-2,-2.4171462E0,1.419784E1,1.1988489E1,5.9054276E1,-7.544553E0,1.4916288E1,6.901049E-1,3.668695E1,1.4089804E1,-4.0223343E1,2.4628504E1,1.2155605E1,2.5205154E1,6.6091305E-1,4.9704723E-2,1.9664381E1,-7.358E-1,-2.8012068E1,3.3612663E-1,2.3299147E1,-9.471127E0,1.6038204E1,2.0944592E-1,3.6686054E1,2.3368423E-1,1.4861177E-1,-3.331178E-1,